{
    "architecture": "SimpleNN(\n  (fc1): Linear(in_features=784, out_features=20, bias=True)\n  (fc2): Linear(in_features=20, out_features=20, bias=True)\n  (fc3): Linear(in_features=20, out_features=10, bias=True)\n  (relu): ReLU()\n)",
    "layers": {
        "fc1": "Linear(in_features=784, out_features=20, bias=True)",
        "fc2": "Linear(in_features=20, out_features=20, bias=True)",
        "fc3": "Linear(in_features=20, out_features=10, bias=True)",
        "relu": "ReLU()"
    },
    "activations": [
        "ReLU()"
    ],
    "trainable_parameters": {
        "fc1.weight": 15680,
        "fc1.bias": 20,
        "fc2.weight": 400,
        "fc2.bias": 20,
        "fc3.weight": 200,
        "fc3.bias": 10
    },
    "total_parameters": 16330,
    "state_dict": {
        "fc1.weight": [
            [
                -0.02278163842856884,
                -0.02829752117395401,
                0.020550336688756943,
                -0.006446801126003265,
                -0.007419244851917028,
                0.006774337030947208,
                -0.011922159232199192,
                -0.025643188506364822,
                -0.01298854872584343,
                0.03144748508930206,
                -0.007417724467813969,
                0.02376292645931244,
                0.0310683473944664,
                0.007545021828263998,
                -0.030286399647593498,
                -0.0034275646321475506,
                -0.014117064885795116,
                -0.01603257842361927,
                -0.02821396477520466,
                -0.0046446314081549644,
                0.02861444093286991,
                -0.010344292037189007,
                -0.0331084243953228,
                0.004113124217838049,
                0.010171165689826012,
                -0.010365731082856655,
                0.01098583359271288,
                0.011338216252624989,
                -0.002528754761442542,
                0.006590147037059069,
                -0.006199130322784185,
                0.009833414107561111,
                -0.04459085687994957,
                -0.03380671888589859,
                -0.039407722651958466,
                -0.030441273003816605,
                -0.020992431789636612,
                -0.02815193310379982,
                0.0055585321970283985,
                -0.050427284091711044,
                -0.03102337010204792,
                -0.0012786898296326399,
                -0.0053141736425459385,
                -0.02990896999835968,
                -0.0038890154100954533,
                -0.01869875006377697,
                -0.06359947472810745,
                -0.017775902524590492,
                -0.059137310832738876,
                -0.014581910334527493,
                0.01477799192070961,
                -0.02177439071238041,
                0.015067581087350845,
                0.003632859094068408,
                0.032737862318754196,
                0.053358837962150574,
                -0.029540831223130226,
                -0.026574300602078438,
                0.011662766337394714,
                -0.05490829795598984,
                -0.03296782821416855,
                -0.012313609011471272,
                -0.0037774965167045593,
                -0.0036490834318101406,
                -0.016105223447084427,
                -0.03973057121038437,
                -0.02973003312945366,
                -0.032171580940485,
                -0.08786530792713165,
                -0.0572536401450634,
                -0.06344865262508392,
                -0.056265734136104584,
                -0.09602046757936478,
                -0.08224942535161972,
                -0.07953085750341415,
                -0.10591629892587662,
                -0.04963554069399834,
                -0.035978589206933975,
                -0.014890657737851143,
                -0.021596085280179977,
                0.020651746541261673,
                -0.002064276719465852,
                0.03761233016848564,
                0.046589769423007965,
                -0.0013248666655272245,
                0.004383325111120939,
                -0.03216887265443802,
                0.00943730864673853,
                -0.034025877714157104,
                -0.05916028097271919,
                -0.004633135627955198,
                -0.06344573199748993,
                -0.005095964763313532,
                -0.0698547512292862,
                -0.05088949203491211,
                -0.05738438293337822,
                -0.08724358677864075,
                -0.06929662078619003,
                -0.11312488466501236,
                -0.12603677809238434,
                -0.10717803984880447,
                -0.12725140154361725,
                -0.1027563065290451,
                -0.06079880893230438,
                -0.07525186240673065,
                -0.05159522593021393,
                -0.03955792263150215,
                -0.010553158819675446,
                -0.06314922124147415,
                0.01478636171668768,
                0.007244860287755728,
                0.02951398491859436,
                0.007202970329672098,
                -0.02159707061946392,
                -0.021551234647631645,
                -0.04296627640724182,
                0.003663699608296156,
                -0.018846997991204262,
                -0.007919993251562119,
                0.003605450736358762,
                -0.050355542451143265,
                -0.014388877898454666,
                -0.09795510023832321,
                -0.0534844771027565,
                -0.09599217772483826,
                -0.10374113917350769,
                -0.10510825365781784,
                -0.06403940171003342,
                -0.08126167953014374,
                -0.09205471724271774,
                -0.0744793564081192,
                -0.05996359512209892,
                -0.02451481483876705,
                -0.03140006586909294,
                -0.028553277254104614,
                -0.02084190770983696,
                -0.06144779920578003,
                -0.05017441511154175,
                0.0196760892868042,
                0.028261259198188782,
                -0.024170536547899246,
                -0.0216900072991848,
                -0.03950369730591774,
                -0.04254911094903946,
                -0.05204063281416893,
                0.02502290904521942,
                0.009969606064260006,
                -0.03906215727329254,
                -0.014670358039438725,
                -0.012331214733421803,
                -0.03257427737116814,
                -0.04259452968835831,
                -0.08801175653934479,
                -0.1333383321762085,
                -0.1105121448636055,
                -0.08939654380083084,
                -0.057973891496658325,
                -0.02078297920525074,
                -0.01764562539756298,
                -0.011985260993242264,
                -0.0024262182414531708,
                -0.021293405443429947,
                -0.01711137220263481,
                -0.04893745109438896,
                -0.055598340928554535,
                -0.03242490440607071,
                -0.003624382894486189,
                0.000713270390406251,
                -0.028446361422538757,
                -0.03886103630065918,
                -0.01813884638249874,
                -0.03400137275457382,
                0.025033259764313698,
                -0.026987502351403236,
                0.036920610815286636,
                -0.01293689850717783,
                -0.017336877062916756,
                -0.037576861679553986,
                0.010638550855219364,
                -0.055549830198287964,
                -0.03309580683708191,
                -0.0531524196267128,
                -0.1165725588798523,
                -0.09068568795919418,
                -0.044607266783714294,
                -0.019624177366495132,
                -0.011966048739850521,
                -0.012838313356041908,
                -0.032364990562200546,
                -0.039248026907444,
                -0.04417775943875313,
                -0.002272113226354122,
                -0.011165350675582886,
                -0.05635567754507065,
                -0.07248909026384354,
                -0.01745266653597355,
                0.03259783610701561,
                -0.055030517280101776,
                -0.05023263394832611,
                0.0032747569493949413,
                0.05335773900151253,
                0.026711734011769295,
                -0.0013370346277952194,
                0.026474468410015106,
                0.05299893394112587,
                0.007940149866044521,
                0.011965214274823666,
                0.03943100944161415,
                0.014987939968705177,
                -0.04142613336443901,
                -0.10266552865505219,
                -0.09930641204118729,
                -0.045601554214954376,
                -0.06869654357433319,
                0.005974505562335253,
                0.005251938011497259,
                -0.017672961577773094,
                -0.0004148642474319786,
                -0.033061545342206955,
                -0.009212512522935867,
                -0.006851276848465204,
                -0.07737492769956589,
                -0.04565659537911415,
                -0.06210273876786232,
                0.014289693906903267,
                -0.014096030965447426,
                0.008026644587516785,
                0.04584929719567299,
                0.05701446905732155,
                0.03154265508055687,
                0.022406401112675667,
                0.01373865082859993,
                0.03400599583983421,
                0.06708923727273941,
                0.07080189138650894,
                0.07723870873451233,
                0.06418770551681519,
                0.0256385188549757,
                -0.004073080141097307,
                -0.0642055869102478,
                -0.03127201646566391,
                -0.08249645680189133,
                -0.02545810677111149,
                -0.05339702218770981,
                -0.022883526980876923,
                -0.07385405153036118,
                -0.08209226280450821,
                -0.046763837337493896,
                -0.054286614060401917,
                -0.04995355382561684,
                -0.048311326652765274,
                -0.046443309634923935,
                0.028857970610260963,
                -0.007068785838782787,
                0.0509391687810421,
                0.09151241183280945,
                0.061305999755859375,
                0.048578884452581406,
                0.09889549762010574,
                0.05404581502079964,
                0.100095734000206,
                0.12772776186466217,
                0.11210370808839798,
                0.14459116756916046,
                0.17137689888477325,
                0.11831337958574295,
                0.06549768894910812,
                -0.002053637756034732,
                -0.028774697333574295,
                -0.020289799198508263,
                -0.04512284696102142,
                -0.0840926244854927,
                -0.05152435973286629,
                -0.04894306883215904,
                -0.07383421063423157,
                -0.088596872985363,
                -0.06881969422101974,
                -0.0841183289885521,
                -0.06462806463241577,
                -0.06681352108716965,
                -0.028250524774193764,
                -0.015361818484961987,
                0.042147811502218246,
                0.09419446438550949,
                0.09661856293678284,
                0.09097433090209961,
                0.1220940500497818,
                0.10509223490953445,
                0.14772793650627136,
                0.0967513918876648,
                0.12152950465679169,
                0.15857379138469696,
                0.16789750754833221,
                0.1419314295053482,
                0.13162529468536377,
                0.04263230785727501,
                -0.01074302103370428,
                0.009244947694242,
                -0.040059469640254974,
                -0.04716862738132477,
                -0.10510792583227158,
                -0.0796223059296608,
                -0.07254330068826675,
                -0.06473207473754883,
                -0.05532028526067734,
                -0.05101386085152626,
                -0.08526495844125748,
                -0.06563744693994522,
                0.027367407456040382,
                0.04641543701291084,
                0.040138714015483856,
                0.1009192019701004,
                0.09922245144844055,
                0.14122538268566132,
                0.12008221447467804,
                0.09411025047302246,
                0.089842788875103,
                0.11683860421180725,
                0.12375304102897644,
                0.12069191783666611,
                0.16974584758281708,
                0.17359155416488647,
                0.12901689112186432,
                0.04028503596782684,
                0.013755369000136852,
                0.05054809898138046,
                0.006844399031251669,
                0.016504375264048576,
                -0.02126278728246689,
                -0.024182863533496857,
                -0.007238694932311773,
                -0.007318803109228611,
                -0.06478722393512726,
                -0.05802784115076065,
                -0.03568948432803154,
                -0.056422360241413116,
                -0.004336434882134199,
                0.03222180902957916,
                0.09510096907615662,
                0.14331065118312836,
                0.12034136801958084,
                0.09498671442270279,
                0.05001498758792877,
                0.08842690289020538,
                0.07302004843950272,
                0.050488248467445374,
                0.08856959640979767,
                0.142566978931427,
                0.13268698751926422,
                0.10696485638618469,
                0.046341534703969955,
                0.021111594513058662,
                -0.010254654102027416,
                -0.025734739378094673,
                -0.0248267725110054,
                0.02467293292284012,
                -0.026210885494947433,
                -0.019942903891205788,
                -0.010424268431961536,
                -0.0066377343609929085,
                0.011244558729231358,
                -0.02545296959578991,
                -0.0013616004725918174,
                -0.02699248120188713,
                0.02468031272292137,
                0.05099440738558769,
                0.07665752619504929,
                0.11112622171640396,
                0.13000330328941345,
                0.07082320749759674,
                0.04044156149029732,
                0.04931154474616051,
                0.06342325359582901,
                0.030639581382274628,
                0.045382339507341385,
                0.10069302469491959,
                0.0879332646727562,
                0.06634097546339035,
                0.05634792894124985,
                0.027195723727345467,
                -0.056723739951848984,
                -0.055511925369501114,
                -0.02157086879014969,
                -0.027740279212594032,
                -0.018116366118192673,
                -0.020742682740092278,
                -0.013281367719173431,
                0.029391931369900703,
                -0.011596756987273693,
                0.01611577533185482,
                -0.011903059668838978,
                -0.027323096990585327,
                -0.013882292434573174,
                0.05359358340501785,
                0.09284226596355438,
                0.11601479351520538,
                0.11488070338964462,
                0.05544542893767357,
                0.07472091168165207,
                0.03344649076461792,
                0.0015937237767502666,
                0.06886028498411179,
                0.07059691101312637,
                0.1159454882144928,
                0.05626247078180313,
                0.02463037148118019,
                0.01222966518253088,
                0.0030361530371010303,
                -0.04978524520993233,
                -0.02619927003979683,
                0.007070882711559534,
                -0.023034846410155296,
                -0.021088603883981705,
                -0.031433507800102234,
                0.007477647624909878,
                -0.03336992859840393,
                0.01135548111051321,
                0.01777443289756775,
                0.01711166650056839,
                0.019153520464897156,
                0.001974177546799183,
                0.05174363777041435,
                0.12022775411605835,
                0.1202898919582367,
                0.048286836594343185,
                0.07643890380859375,
                0.06868179887533188,
                0.025496888905763626,
                0.0702856108546257,
                0.07301612198352814,
                0.07137604802846909,
                0.07837363332509995,
                0.0540422648191452,
                0.003209454007446766,
                0.005538585130125284,
                -0.015212403610348701,
                -0.03002452291548252,
                -0.04847537353634834,
                0.029106464236974716,
                -0.021207865327596664,
                -0.030597103759646416,
                -0.03400448337197304,
                0.004204075317829847,
                -0.03793497756123543,
                0.015203558839857578,
                -0.009902621619403362,
                0.021199749782681465,
                0.010260965675115585,
                -0.008166327141225338,
                0.049227211624383926,
                0.07716188579797745,
                0.04289674013853073,
                0.029112519696354866,
                0.02882455475628376,
                0.04546986520290375,
                0.024780306965112686,
                0.021185893565416336,
                0.01383647508919239,
                0.02558431215584278,
                0.058309074491262436,
                0.03711698576807976,
                -0.020152730867266655,
                -0.03400202468037605,
                -0.0038749121595174074,
                -0.03167818859219551,
                -0.03555300459265709,
                -0.043801069259643555,
                0.03205312043428421,
                0.026914240792393684,
                0.006060186307877302,
                0.017556704580783844,
                -0.037355467677116394,
                -0.006837659981101751,
                -0.02375621534883976,
                -0.01566166989505291,
                0.025578565895557404,
                0.010306171141564846,
                0.022353220731019974,
                0.023350698873400688,
                0.03622397407889366,
                0.061883408576250076,
                0.02463284134864807,
                0.03212907165288925,
                0.07319168001413345,
                0.03642381355166435,
                0.019910136237740517,
                0.07978323847055435,
                0.05331844836473465,
                0.0160626620054245,
                -0.013346961699426174,
                -0.044036682695150375,
                -0.020865866914391518,
                -0.04891471937298775,
                -0.02209172211587429,
                -0.03513145446777344,
                0.024810096248984337,
                -0.025592060759663582,
                0.017895251512527466,
                0.027334041893482208,
                2.3279884771909565e-05,
                -0.025328688323497772,
                -0.019609568640589714,
                0.047039516270160675,
                0.004726748913526535,
                -0.036836229264736176,
                -0.02031717449426651,
                0.045792028307914734,
                0.05500638484954834,
                0.05922377109527588,
                0.05486467480659485,
                0.03980205953121185,
                0.08672640472650528,
                0.042870521545410156,
                0.03211434185504913,
                0.0788535475730896,
                0.07711175829172134,
                0.02551351673901081,
                -0.004771937150508165,
                -0.001783723128028214,
                -0.012412089854478836,
                -0.04999205470085144,
                -0.02017264999449253,
                -0.0016932730795815587,
                -0.035445913672447205,
                0.01281910203397274,
                -0.014002216048538685,
                0.006701197940856218,
                -0.010702229104936123,
                -0.008913497440516949,
                0.03783389553427696,
                0.0641605406999588,
                -0.00500139594078064,
                -0.015747195109725,
                0.004372276831418276,
                0.0376720130443573,
                0.015836020931601524,
                0.015619834885001183,
                0.05728873983025551,
                0.05443790555000305,
                0.03446093201637268,
                0.04934985563158989,
                0.053569864481687546,
                0.11046099662780762,
                0.0947795882821083,
                0.010488845407962799,
                -0.007588973734527826,
                -0.039780184626579285,
                0.008073181845247746,
                -0.0505857914686203,
                0.008761579170823097,
                0.020668720826506615,
                -0.020536616444587708,
                0.01833534799516201,
                0.036708176136016846,
                -0.01606406271457672,
                -0.00785218458622694,
                0.004879198968410492,
                0.014119935221970081,
                0.01998608000576496,
                0.015353870578110218,
                0.03314296901226044,
                -0.009243656881153584,
                0.011571240611374378,
                0.04596705362200737,
                0.023409763351082802,
                0.06506253778934479,
                0.08521349728107452,
                0.06696676462888718,
                0.07818445563316345,
                0.041237518191337585,
                0.09039918333292007,
                0.04423685744404793,
                0.012811625376343727,
                -0.0074518597684800625,
                -0.018978150561451912,
                0.010946571826934814,
                0.007911545224487782,
                -0.008081258274614811,
                0.02021685615181923,
                -0.04223371669650078,
                0.022394521161913872,
                0.004242468625307083,
                0.029529303312301636,
                -0.014427746646106243,
                0.04293626919388771,
                -0.0032760777976363897,
                0.019888371229171753,
                0.04705669730901718,
                -0.0019258070969954133,
                -0.014645250514149666,
                0.027776658535003662,
                0.00940773356705904,
                0.03351540490984917,
                0.06499754637479782,
                0.05590392276644707,
                0.0727381557226181,
                0.012130208313465118,
                0.030220577493309975,
                0.0038960694801062346,
                0.04656516760587692,
                0.05235135555267334,
                0.04242844507098198,
                0.012100589461624622,
                0.010292512364685535,
                0.012146889232099056,
                0.0412423238158226,
                -0.01778600551187992,
                0.019532764330506325,
                0.02091560699045658,
                0.025797715410590172,
                -0.0235868152230978,
                0.03500963747501373,
                -0.013046778738498688,
                -0.024460606276988983,
                0.023891042917966843,
                0.004594959318637848,
                0.0208530705422163,
                -0.018155500292778015,
                0.0045889997854828835,
                0.0038190865889191628,
                0.05231054499745369,
                -0.005588253494352102,
                0.04514240473508835,
                0.017064964398741722,
                0.011369182728230953,
                0.027809428051114082,
                0.01628303714096546,
                0.03710663691163063,
                0.0016135935438796878,
                -0.028210565447807312,
                0.015569747425615788,
                -0.008844696916639805,
                0.025602424517273903,
                -0.005879468284547329,
                -0.012143176048994064,
                -0.0006148784887045622,
                0.005743029993027449,
                0.01770096831023693,
                -0.010632241144776344,
                -0.02813628688454628,
                0.0022275946103036404,
                -0.015115718357264996,
                -0.005969096906483173,
                -0.01785433106124401,
                -0.015667879953980446,
                -0.0037120147608220577,
                -0.009773140773177147,
                -0.008519195020198822,
                -0.0015561345499008894,
                0.031088227406144142,
                -0.012154174968600273,
                0.021842550486326218,
                -0.030993999913334846,
                1.17053577923798e-05,
                -0.025575485080480576,
                0.0013601044192910194,
                -0.03397045284509659,
                0.010504292324185371,
                -0.011728300713002682,
                -0.024242380633950233,
                -0.033201295882463455,
                -0.009459160268306732,
                0.020813554525375366,
                0.012525306083261967,
                -0.049927469342947006,
                -0.0029485193081200123,
                -0.009814481250941753,
                -0.016902977600693703,
                0.008444568142294884,
                -0.033372849225997925,
                -0.03398365527391434,
                -0.015908313915133476,
                0.0096767358481884,
                -0.005505535751581192,
                0.023255852982401848,
                -0.011050563305616379,
                -0.010308761149644852,
                0.032600127160549164,
                0.010105845518410206,
                -0.04331953078508377,
                -0.039297182112932205,
                -0.0388895682990551,
                -0.027233285829424858,
                -0.012772263959050179,
                -0.05558262765407562,
                -0.009086771868169308,
                -0.04712379723787308,
                -0.041671328246593475,
                -0.03937157243490219,
                -0.007705155294388533,
                0.010753331705927849,
                -0.03698287904262543,
                -0.034979306161403656,
                -0.06262349337339401,
                -0.03680909425020218,
                -0.04650593176484108,
                -0.06916137784719467,
                -0.00044464008533395827,
                -0.03520485758781433,
                -0.041221849620342255,
                0.015121019445359707,
                0.01714502088725567,
                -0.01610463298857212,
                0.007955953478813171,
                0.008941625244915485,
                0.011020533740520477,
                0.012850340455770493,
                0.0003822458675131202,
                -0.03155473619699478,
                0.013080202974379063,
                -0.022384287789463997,
                -0.011309106834232807,
                -0.009568982757627964,
                -0.028380025178194046,
                0.008042900823056698,
                0.010275010019540787,
                -0.01545468345284462,
                -0.004683611914515495,
                -0.06978671252727509,
                -0.05322296917438507,
                0.006043333560228348,
                -0.021349042654037476,
                -0.04877905175089836,
                -0.08496344089508057,
                -0.03398069366812706,
                -0.025946371257305145,
                -0.021875394508242607,
                -0.01734919287264347,
                -0.025769606232643127,
                -0.032734259963035583,
                0.002491258317604661,
                -0.026935042813420296,
                -0.03297050669789314,
                -0.049731817096471786,
                -0.025980018079280853,
                -0.03778769075870514,
                -0.005162722431123257,
                -0.023454533889889717,
                -0.016296977177262306,
                0.016988391056656837,
                0.0003969387908000499,
                0.034123752266168594,
                0.043328333646059036,
                0.05338287726044655,
                0.0373443178832531,
                0.04095252603292465,
                -0.004445089027285576,
                0.0015272129094228148,
                0.00580230075865984,
                0.011048851534724236,
                -0.057249508798122406,
                -0.020416157320141792,
                -0.033117759972810745,
                -0.00314361066557467,
                -0.015460451133549213,
                0.010283496230840683,
                0.029206978157162666,
                0.004046468995511532,
                -0.01529904454946518,
                -0.042988236993551254,
                -0.02626451477408409,
                -0.03543353080749512,
                -0.039004720747470856,
                -0.04163142293691635,
                -0.037766534835100174,
                0.009329727850854397,
                0.024865422397851944,
                -0.000795941858086735,
                0.053838133811950684,
                0.04924716055393219,
                0.03432527929544449,
                0.06544117629528046,
                0.01800844818353653,
                0.06194362789392471,
                0.0932302176952362,
                0.05279716104269028,
                0.01383164618164301,
                0.003858289448544383,
                -0.01982383243739605,
                -0.012994143180549145,
                -0.012409639544785023,
                -0.031050143763422966,
                -0.01956373080611229,
                0.00030540802981704473
            ],
            [
                -0.01457010954618454,
                0.03568771481513977,
                0.010721461847424507,
                0.01597468927502632,
                0.014674634672701359,
                0.04553328454494476,
                0.03602338582277298,
                -0.012675262987613678,
                -0.005403993185609579,
                0.002811719896271825,
                0.03162186220288277,
                -0.008668314665555954,
                0.009016522206366062,
                0.037580519914627075,
                0.005833080969750881,
                0.03191142901778221,
                0.047102928161621094,
                0.011709803715348244,
                0.033575523644685745,
                0.007089876104146242,
                0.017582155764102936,
                0.03599347174167633,
                0.0032231234945356846,
                0.04091603308916092,
                0.01989157497882843,
                0.012130407616496086,
                0.01738169603049755,
                0.04675286263227463,
                0.04745650291442871,
                0.028443263843655586,
                -0.0018452779622748494,
                -0.00102982297539711,
                0.03129560127854347,
                0.003804852720350027,
                -0.009168930351734161,
                -0.022475482895970345,
                -0.017313672229647636,
                -0.018130909651517868,
                -0.007526038680225611,
                -0.01967659592628479,
                -0.0194229818880558,
                -0.012685180641710758,
                -0.006947685498744249,
                -0.006333553232252598,
                0.036589525640010834,
                0.030097806826233864,
                0.03367346152663231,
                0.04051297903060913,
                0.027357574552297592,
                0.04286596179008484,
                0.00573722692206502,
                -0.012700308114290237,
                -0.0011659261072054505,
                0.04753414914011955,
                0.040893442928791046,
                0.027186037972569466,
                0.019049035385251045,
                0.045270711183547974,
                0.01364300586283207,
                0.027593152597546577,
                -0.0165399257093668,
                -0.03589873015880585,
                0.013997593894600868,
                -0.01605801470577717,
                -0.00353554030880332,
                -0.013569680042564869,
                -0.03225846216082573,
                -0.041747529059648514,
                -0.05728067457675934,
                -0.006875401828438044,
                -0.02165965735912323,
                0.008649014867842197,
                -0.04021243751049042,
                -0.0142139857634902,
                0.0018520028097555041,
                0.06358709931373596,
                0.010414005257189274,
                0.0034786746837198734,
                0.03930280730128288,
                0.04446926340460777,
                0.06871777027845383,
                0.06993076950311661,
                0.07866261899471283,
                0.06988701969385147,
                0.014708364382386208,
                0.050717540085315704,
                0.04187364876270294,
                -0.010017086751759052,
                0.005533382296562195,
                -0.028220387175679207,
                0.0020494130440056324,
                -0.03252904862165451,
                -0.03642541170120239,
                -0.013661674223840237,
                -0.05769118294119835,
                -0.048234932124614716,
                -0.007183341775089502,
                -0.03529766574501991,
                -0.015255212783813477,
                -0.017612194642424583,
                0.017806466668844223,
                0.012957346625626087,
                0.06592251360416412,
                0.023714488372206688,
                0.0373174324631691,
                0.025367960333824158,
                0.06638563424348831,
                0.05448763817548752,
                0.02136913314461708,
                0.06832069158554077,
                0.03066622093319893,
                0.076999232172966,
                -0.005339513998478651,
                0.02704131416976452,
                0.013325070962309837,
                -0.009382055141031742,
                -0.020640278235077858,
                -0.011536438949406147,
                -0.03355782851576805,
                -0.04371829330921173,
                -0.04312519729137421,
                -0.0012705638073384762,
                -0.051602646708488464,
                0.017709193751215935,
                -0.034316372126340866,
                -0.014986875467002392,
                -0.015204117633402348,
                -0.0009087052894756198,
                0.011354842223227024,
                0.006825629621744156,
                0.06436112523078918,
                0.02594764158129692,
                0.01110447570681572,
                0.05716346204280853,
                0.02677242085337639,
                0.021474041044712067,
                0.04272373020648956,
                0.03897858411073685,
                0.08079962432384491,
                0.029923969879746437,
                0.024458780884742737,
                -0.011758994311094284,
                0.01224050298333168,
                -0.023634623736143112,
                -0.015095500275492668,
                0.03805965557694435,
                0.03738399222493172,
                0.019722118973731995,
                -0.0351819284260273,
                0.018333634361624718,
                -0.002721381140872836,
                0.04850468412041664,
                0.03431086242198944,
                -0.002328233327716589,
                -0.0007214565994217992,
                0.05028761923313141,
                0.043109823018312454,
                0.03323908522725105,
                0.015127998776733875,
                0.032477784901857376,
                0.008603847585618496,
                0.022665634751319885,
                0.0014068263117223978,
                0.025930028408765793,
                0.030335213989019394,
                0.07221893221139908,
                0.056398820132017136,
                0.05933054909110069,
                -0.0009528371156193316,
                -0.00537998229265213,
                0.015101171098649502,
                0.0188831128180027,
                0.04626036062836647,
                0.05324968323111534,
                -0.0064233229495584965,
                0.015423610806465149,
                -0.00984942726790905,
                0.03884090110659599,
                0.03224971517920494,
                0.06207164004445076,
                0.001573062501847744,
                0.028363987803459167,
                0.03401618450880051,
                -0.05297677963972092,
                -0.03192000091075897,
                -0.043852128088474274,
                -0.04244758188724518,
                -0.04938317462801933,
                -0.01872294209897518,
                0.02176082134246826,
                0.016876287758350372,
                0.014693157747387886,
                -0.0007735983817838132,
                -0.005134487058967352,
                -0.010555091314017773,
                -0.004573995713144541,
                0.017973460257053375,
                0.016914330422878265,
                -0.011778227053582668,
                -0.008425052277743816,
                0.03809402883052826,
                0.02966410666704178,
                0.010699743404984474,
                0.05082273483276367,
                0.02290508523583412,
                0.06208154559135437,
                0.020790614187717438,
                0.06571033596992493,
                0.0727948471903801,
                0.02334527112543583,
                0.013758891262114048,
                -0.02422378771007061,
                -0.02839321456849575,
                -0.055163607001304626,
                -0.03206842765212059,
                -0.07667366415262222,
                0.00478501757606864,
                0.031802356243133545,
                0.037285324186086655,
                0.02639910764992237,
                -0.012413140386343002,
                0.007157525047659874,
                -0.027355870231986046,
                -0.018269380554556847,
                0.048887286335229874,
                0.00976607482880354,
                0.041539695113897324,
                0.06258377432823181,
                0.05985958129167557,
                0.033821411430835724,
                0.06706906855106354,
                0.059169501066207886,
                0.06713178753852844,
                0.08760674297809601,
                0.07292435318231583,
                0.0513390451669693,
                0.05390765145421028,
                0.001358589855954051,
                0.02072714827954769,
                -0.031044743955135345,
                -0.05504600331187248,
                -0.08617601543664932,
                -0.051174722611904144,
                -0.06420598924160004,
                0.0038593560457229614,
                -0.009215975180268288,
                -0.0006200131610967219,
                0.004647488705813885,
                0.01377029251307249,
                -0.018403155729174614,
                0.008264857344329357,
                -0.004150562919676304,
                0.008350461721420288,
                0.0026485759299248457,
                0.038260772824287415,
                0.03501145541667938,
                0.0970984548330307,
                0.053970012813806534,
                0.09411316365003586,
                0.08905115723609924,
                0.08752883225679398,
                0.04499991610646248,
                0.09128860384225845,
                0.0442022830247879,
                0.05502661317586899,
                0.0659954622387886,
                0.004097988363355398,
                -0.030088813975453377,
                -0.010977333411574364,
                -0.01320565864443779,
                -0.0357692651450634,
                0.0016158520011231303,
                -0.010059426538646221,
                -0.018718063831329346,
                0.007838285528123379,
                0.006075671873986721,
                -0.019644122570753098,
                -0.025737974792718887,
                -0.034451987594366074,
                0.009526217356324196,
                -0.0009431548533029854,
                0.009363746270537376,
                0.04564860463142395,
                0.038048192858695984,
                0.057447537779808044,
                0.07247814536094666,
                0.08705480396747589,
                0.03437969461083412,
                0.06066213548183441,
                0.028939371928572655,
                0.0011807847768068314,
                0.03835104778409004,
                0.06250304728746414,
                -0.0026695928536355495,
                0.025141878053545952,
                -0.015188650228083134,
                0.011871391907334328,
                -0.006856072228401899,
                -0.015513080172240734,
                0.040370795875787735,
                0.015904460102319717,
                0.008095935918390751,
                3.0923114536562935e-05,
                -0.028386695310473442,
                -0.0414307564496994,
                0.010427973233163357,
                -0.02473754622042179,
                0.0016363710165023804,
                0.04486250504851341,
                0.039040785282850266,
                0.08013852685689926,
                0.05968214198946953,
                0.059156835079193115,
                0.07431169599294662,
                0.0731220617890358,
                0.023639528080821037,
                0.035657014697790146,
                0.01005991455167532,
                0.0263864453881979,
                -0.039834171533584595,
                -0.015207335352897644,
                0.007517330348491669,
                -0.013045232743024826,
                -0.015318997204303741,
                0.017616230994462967,
                0.04306648299098015,
                0.06422039121389389,
                0.02907778136432171,
                0.018664902076125145,
                -0.0005204400513321161,
                0.012239674106240273,
                0.011145615950226784,
                0.023109743371605873,
                0.014116215519607067,
                -0.04369388520717621,
                -0.06796825677156448,
                0.04047916829586029,
                -0.00219497992657125,
                0.053098369389772415,
                0.08306349813938141,
                0.0038148583844304085,
                0.010901746340095997,
                0.007786905393004417,
                0.012506600469350815,
                -0.013780849985778332,
                -0.024038083851337433,
                -0.034764502197504044,
                -0.0432615801692009,
                -0.06385160982608795,
                -0.02269721031188965,
                -0.02533806674182415,
                0.027203261852264404,
                -0.007426506839692593,
                0.024914219975471497,
                0.02115071564912796,
                0.0375421866774559,
                0.012874512933194637,
                0.005787787958979607,
                -0.01571761444211006,
                -0.013485770672559738,
                -0.03732791915535927,
                -0.027990736067295074,
                -0.004220001399517059,
                -0.057890456169843674,
                -0.014929675497114658,
                0.01103308517485857,
                0.03388494253158569,
                -0.0041158488020300865,
                -0.0014867503196001053,
                0.024137139320373535,
                0.020711718127131462,
                -0.0015045159962028265,
                -0.0033660975750535727,
                -0.028197627514600754,
                -0.010303735733032227,
                -0.0004848800308536738,
                -0.03921905532479286,
                -0.05009670555591583,
                -0.02027706988155842,
                0.055881377309560776,
                0.030469287186861038,
                0.03510211780667305,
                0.06038063019514084,
                0.045171208679676056,
                0.04692720249295235,
                0.03986574709415436,
                0.003758137347176671,
                -0.0242246612906456,
                0.006807883270084858,
                0.009443497285246849,
                -0.008251837454736233,
                -0.045096103101968765,
                -0.0072145783342421055,
                0.017279623076319695,
                -0.03706631064414978,
                -0.024659471586346626,
                0.014160621911287308,
                -0.04096069186925888,
                0.0035081205423921347,
                -0.015980418771505356,
                0.009185777977108955,
                -0.008019395172595978,
                0.0102284736931324,
                0.014775466173887253,
                0.0062637049704790115,
                0.018461652100086212,
                0.0016038636676967144,
                0.0267208069562912,
                0.00034395806142129004,
                0.07443419098854065,
                0.06982219964265823,
                0.038017597049474716,
                -0.01448383741080761,
                0.022195156663656235,
                -0.03127407282590866,
                -0.022867992520332336,
                0.010219025425612926,
                0.0071777948178350925,
                -0.007368944119662046,
                -0.03517381474375725,
                0.007356493268162012,
                0.011075909249484539,
                -0.029158053919672966,
                -0.05102475732564926,
                0.00598907470703125,
                -0.015770645812153816,
                0.0035965426359325647,
                -0.04798613488674164,
                -0.04888566955924034,
                -0.022921456024050713,
                -0.03630464896559715,
                0.017880000174045563,
                -0.017248354852199554,
                -0.006192632485181093,
                0.0036837896332144737,
                0.06451774388551712,
                0.036331795156002045,
                0.017112908884882927,
                0.05331547558307648,
                0.007557258475571871,
                -0.03946444392204285,
                -0.015936722978949547,
                -0.01199980266392231,
                0.011274125427007675,
                -0.039666999131441116,
                -0.06092749163508415,
                -0.038004808127880096,
                -0.08064199984073639,
                0.03838684409856796,
                0.022472485899925232,
                -0.01886766403913498,
                -0.0579710453748703,
                -0.014884237200021744,
                -0.02812160737812519,
                -0.06580087542533875,
                0.001910365535877645,
                -0.045577120035886765,
                -0.05681750550866127,
                -0.0020130604971200228,
                -0.004934615921229124,
                -0.03661675751209259,
                0.012572523206472397,
                0.030857007950544357,
                0.02615559659898281,
                0.053179215639829636,
                0.04983963444828987,
                0.027484990656375885,
                0.02435535192489624,
                -0.03401552885770798,
                -0.011817330494523048,
                -0.03181905299425125,
                -0.06016998738050461,
                -0.050495341420173645,
                -0.07991355657577515,
                -0.04693182185292244,
                -0.05866758152842522,
                0.004624348133802414,
                -0.024944158270955086,
                -0.033768631517887115,
                -0.029825765639543533,
                -0.02925989404320717,
                -0.039831504225730896,
                -0.06967921555042267,
                -0.03997136652469635,
                -0.009344748221337795,
                -0.02797146700322628,
                -0.002044248627498746,
                -0.004056471399962902,
                -0.01703769899904728,
                0.03734024614095688,
                -0.0009724503033794463,
                0.02323424443602562,
                0.05672725662589073,
                -0.013316716998815536,
                0.008860214613378048,
                -0.034329354763031006,
                -0.004312422592192888,
                -0.01849360391497612,
                -0.09207142889499664,
                -0.027408165857195854,
                -0.042576223611831665,
                -0.0814448669552803,
                -0.09267949312925339,
                -0.10215893387794495,
                0.011496296152472496,
                -0.013928205706179142,
                -0.0028854322154074907,
                -0.037749994546175,
                -0.0612686425447464,
                -0.04317430406808853,
                -0.007850274443626404,
                -0.04924754425883293,
                -0.06182773783802986,
                -0.012064754962921143,
                -0.04992159083485603,
                -0.036965545266866684,
                0.035397227853536606,
                -0.013049413450062275,
                0.051725853234529495,
                0.07861262559890747,
                -0.004439725540578365,
                0.0019723805598914623,
                -0.0002837050997186452,
                -0.05945686995983124,
                -0.06821013242006302,
                -0.08190194517374039,
                -0.020631639286875725,
                -0.04147881641983986,
                -0.06603116542100906,
                -0.08694074302911758,
                -0.040030304342508316,
                -0.06910494714975357,
                -0.010115692391991615,
                -0.03263139724731445,
                0.013027493841946125,
                -0.018366172909736633,
                -0.049251943826675415,
                -0.05882079154253006,
                -0.06281109154224396,
                -0.052143484354019165,
                -0.02493838220834732,
                -0.01988094672560692,
                -0.01982622966170311,
                -0.02372899278998375,
                0.009777809493243694,
                0.008672237396240234,
                0.023714741691946983,
                0.05113133788108826,
                0.007093964144587517,
                -0.034022752195596695,
                -0.02195635437965393,
                -0.05695692077279091,
                -0.07420578598976135,
                -0.03318220004439354,
                -0.06510104984045029,
                -0.04789205268025398,
                -0.04342995956540108,
                -0.036422017961740494,
                -0.08925175666809082,
                -0.05202264338731766,
                0.04051550477743149,
                0.01542098168283701,
                -0.017603283748030663,
                -0.02724476531147957,
                -0.006898758467286825,
                -0.035057827830314636,
                -0.05068496614694595,
                -0.03717620670795441,
                0.014752192422747612,
                -0.03344598785042763,
                -0.011791964992880821,
                0.024724723771214485,
                0.07857010513544083,
                0.07459428906440735,
                0.07364804297685623,
                0.022762060165405273,
                -0.02714340016245842,
                -0.010909083299338818,
                -0.06615593284368515,
                -0.016851482912898064,
                -0.05560191720724106,
                -0.060268886387348175,
                -0.05535903200507164,
                -0.05758852884173393,
                -0.0386689193546772,
                -0.08269527554512024,
                -0.05723407119512558,
                -0.060830093920230865,
                -0.013770826160907745,
                -0.0033093320671468973,
                0.02254353277385235,
                -0.0037792811635881662,
                0.022564830258488655,
                0.02305818907916546,
                -0.0446966215968132,
                -0.03185192868113518,
                0.0019368731882423162,
                -0.0011873756302520633,
                -0.036359887570142746,
                0.006233914755284786,
                0.04181760922074318,
                0.04007529467344284,
                0.023312553763389587,
                -0.008357296697795391,
                -0.03248415142297745,
                -0.007855705916881561,
                -0.05612298473715782,
                -0.0650562196969986,
                -0.017074156552553177,
                -0.04060576856136322,
                -0.03028162382543087,
                -0.03242983669042587,
                -0.06901154667139053,
                -0.02117585577070713,
                -0.0522463321685791,
                -0.012214710004627705,
                0.00627477839589119,
                0.036481957882642746,
                0.011535171419382095,
                0.012746482156217098,
                -0.008419075049459934,
                0.0008380559156648815,
                0.014670299366116524,
                -0.01152493804693222,
                0.01966536045074463,
                0.0003773355856537819,
                -0.017040489241480827,
                -0.027638079598546028,
                -0.02077276073396206,
                -0.008472240529954433,
                0.010371957905590534,
                -0.014228712767362595,
                -0.06747061759233475,
                -0.04851238429546356,
                -0.04586729034781456,
                -0.03949729725718498,
                -0.022148003801703453,
                -0.018222078680992126,
                -0.038880735635757446,
                -0.053836558014154434,
                -0.058322757482528687,
                -0.04085227847099304,
                -0.04017725586891174,
                -0.025076277554035187,
                0.02491428516805172,
                0.020871026441454887,
                0.013822723180055618,
                -0.002515434054657817,
                0.0037495179567486048,
                -0.022488782182335854,
                -0.041151802986860275,
                0.013433268293738365,
                -0.028863949701189995,
                -0.044471751898527145,
                -0.011923386715352535,
                -0.027381587773561478,
                -0.012938379310071468,
                -0.06180521100759506,
                -0.07149529457092285,
                -0.07202520966529846,
                -0.07751303166151047,
                -0.02591703087091446,
                -0.04083395004272461,
                -0.022059472277760506,
                -0.02405403181910515,
                -0.018132301047444344,
                0.0049829608760774136,
                -0.01600666157901287,
                -0.007965567521750927,
                0.0012051560916006565,
                -0.02716859057545662,
                -0.010264135897159576,
                -0.010876916348934174,
                0.029576629400253296,
                -0.015596158802509308,
                -0.009814407676458359,
                -0.00043674514745362103,
                -0.013231070712208748,
                -0.033934418112039566,
                -0.007996687665581703,
                -0.004270137287676334,
                -0.0007315516122616827,
                -0.03259190917015076,
                -0.003723056521266699,
                -0.07657946646213531,
                -0.01161613967269659,
                -0.06166524440050125,
                -0.029870271682739258,
                -0.03627939149737358,
                -0.019322073087096214,
                0.015570773743093014,
                -0.009703535586595535,
                -0.008113531395792961,
                -0.003073795698583126,
                0.001485626446083188,
                0.013873233459889889,
                -0.04148091375827789,
                0.004881329368799925,
                0.03311300277709961,
                0.045093365013599396,
                0.05390499532222748,
                0.04439733549952507,
                0.042200930416584015,
                0.03647271543741226,
                0.029639821499586105,
                -0.03403220698237419,
                0.0318438783288002,
                0.005493893288075924,
                -0.002278606640174985,
                -0.028381142765283585,
                -0.04925210028886795,
                0.0023148597683757544,
                -0.02967802807688713,
                0.023996062576770782,
                0.002774991560727358,
                0.002039983868598938,
                0.011182333342730999,
                -0.008558977395296097,
                0.015702759847044945,
                0.010820901952683926,
                -0.02321353554725647,
                0.004915344528853893,
                -0.007768433075398207,
                -0.013269872404634953,
                0.04624386504292488,
                0.031664054840803146,
                0.01563427783548832,
                0.04999314248561859,
                0.01881365291774273,
                0.0010918391635641456,
                0.03722122311592102,
                0.02354225516319275,
                0.03569537773728371,
                0.03396453335881233,
                0.01575724221765995,
                0.02511984296143055,
                -0.01702427864074707,
                -0.0018130205571651459,
                -0.04884511977434158,
                -0.0575728714466095,
                -0.054497215896844864,
                -0.015245169401168823,
                -0.03466600924730301,
                0.005975109059363604,
                0.018312402069568634,
                0.006356060039252043,
                0.01279845368117094,
                0.0034290379844605923,
                0.016478126868605614,
                0.023208586499094963,
                -0.003515157848596573,
                0.04819067567586899,
                0.05712706223130226,
                0.012316053733229637,
                0.0720723494887352,
                0.014911007136106491,
                0.008018076419830322,
                -0.014661487191915512,
                0.038979195058345795,
                0.015762537717819214,
                0.039944086223840714,
                0.037527453154325485,
                0.005592600908130407,
                -0.021315820515155792,
                -0.04153645783662796,
                -0.04886939004063606,
                -0.06177695840597153,
                -0.08681964129209518,
                -0.05276710167527199,
                -0.05517185479402542,
                -0.06873108446598053,
                -0.029804470017552376,
                0.01829642243683338,
                -0.013202051632106304,
                0.03187432140111923,
                0.01062826905399561,
                0.06367413699626923,
                0.0054303668439388275,
                0.03773781657218933,
                0.03705421835184097,
                0.01837223581969738,
                0.024482565000653267,
                0.0028221197426319122,
                0.03855693340301514
            ],
            [
                -0.03186360374093056,
                0.0021153967827558517,
                0.014541852287948132,
                -0.020607106387615204,
                -0.019447971135377884,
                -0.029144439846277237,
                -0.029393138363957405,
                0.018207980319857597,
                0.031129322946071625,
                -0.01520197931677103,
                0.01958896405994892,
                0.025229331105947495,
                -0.02971694804728031,
                0.011143209412693977,
                0.028419997543096542,
                0.023779509589076042,
                -0.012210081331431866,
                0.0321664996445179,
                -0.02158500626683235,
                -0.008683542720973492,
                0.008873715996742249,
                0.012938084080815315,
                -0.0020572852808982134,
                0.003012516302987933,
                0.03477796912193298,
                0.013522498309612274,
                0.0004340163723099977,
                -0.03285716846585274,
                0.0022968121338635683,
                -0.021800201386213303,
                0.02884313464164734,
                0.02777716889977455,
                -0.011261343955993652,
                -0.012439156882464886,
                -0.014977654442191124,
                0.014843946322798729,
                0.013601084239780903,
                0.011622222140431404,
                0.026655664667487144,
                0.027062218636274338,
                0.020660385489463806,
                -0.00843796320259571,
                -0.04785966873168945,
                0.016602972522377968,
                0.008073770441114902,
                -0.009708913043141365,
                -0.0590507872402668,
                0.014221335761249065,
                -0.01831035502254963,
                0.0018385512521490455,
                0.009133366867899895,
                -0.0012165866792201996,
                -0.030613834038376808,
                0.002454642439261079,
                0.03490027040243149,
                -0.016691796481609344,
                0.0020843283273279667,
                0.016917280852794647,
                0.014004205353558064,
                0.05607736110687256,
                0.021522775292396545,
                0.06271969527006149,
                0.02678822912275791,
                0.013428321108222008,
                0.03449500352144241,
                0.014093806967139244,
                0.019041405990719795,
                0.029115747660398483,
                -0.027223380282521248,
                0.026979593560099602,
                0.01165059395134449,
                -0.01212237123399973,
                -0.029774511232972145,
                -0.06147375330328941,
                -0.042591966688632965,
                -0.02763231284916401,
                -0.055364105850458145,
                -0.019927430897951126,
                -0.003171752905473113,
                -0.02746710553765297,
                -0.02235407568514347,
                0.035088345408439636,
                -3.757020385819487e-05,
                0.04018295556306839,
                0.014118588529527187,
                -0.0025220890529453754,
                0.0015824633883312345,
                0.05675678700208664,
                0.03454728424549103,
                0.06016889214515686,
                -0.01543924305588007,
                0.0295450147241354,
                0.05141424015164375,
                0.04343963786959648,
                0.060616880655288696,
                0.03650288283824921,
                0.030761634930968285,
                0.013246809132397175,
                -0.03414185717701912,
                -0.005548091605305672,
                -0.012365843169391155,
                -0.06264679878950119,
                -0.036250777542591095,
                -0.003457409795373678,
                -0.048496074974536896,
                -0.06898374855518341,
                -0.03586046025156975,
                -0.01348134595900774,
                -0.004406162537634373,
                0.00607449933886528,
                0.007722306065261364,
                0.02534424141049385,
                0.023900341242551804,
                0.015632132068276405,
                0.0016296178800985217,
                0.014896600507199764,
                0.002623722655698657,
                0.013614688999950886,
                0.022759445011615753,
                0.015927745029330254,
                0.017078762874007225,
                0.03373944014310837,
                -0.020038340240716934,
                0.04199673607945442,
                0.007672823965549469,
                0.018084190785884857,
                -0.0031597421038895845,
                -0.00177657266613096,
                -0.04336690530180931,
                -0.06339944154024124,
                -0.05861160531640053,
                -0.04865870252251625,
                -0.00689265551045537,
                -0.03721379116177559,
                -0.015795469284057617,
                0.003226598957553506,
                0.035107966512441635,
                0.06206566467881203,
                0.032145559787750244,
                0.028245484456419945,
                0.03165571019053459,
                0.025051966309547424,
                -0.007407769560813904,
                0.012212942354381084,
                -0.001425175927579403,
                0.04931887239217758,
                0.03551953285932541,
                -0.009308598935604095,
                -0.010470801033079624,
                0.027848035097122192,
                0.02468155510723591,
                -0.0068391007371246815,
                0.017934180796146393,
                -0.030246959999203682,
                -0.028192244470119476,
                0.004953267518430948,
                -0.0008001961396075785,
                -0.031482480466365814,
                -0.030558506026864052,
                0.011121684685349464,
                0.024440769106149673,
                0.017145821824669838,
                0.0318918451666832,
                0.0022539256606251,
                0.04356039687991142,
                0.04170776531100273,
                0.04406524822115898,
                0.009974366053938866,
                0.02037104032933712,
                0.03478558361530304,
                -0.008718960918486118,
                0.04477095976471901,
                0.01005114521831274,
                -0.011912362650036812,
                0.008948354981839657,
                -0.008812115527689457,
                -0.004959926940500736,
                -0.015048522502183914,
                0.005546156316995621,
                0.010852104984223843,
                -0.020301364362239838,
                0.039074551314115524,
                0.009317174553871155,
                -0.00933170411735773,
                0.012505676597356796,
                0.0016407084185630083,
                -0.010621069930493832,
                0.03960470110177994,
                0.006117783021181822,
                0.015127573162317276,
                0.03621232137084007,
                0.0596429817378521,
                0.050926193594932556,
                0.08281965553760529,
                0.06667198240756989,
                0.022566068917512894,
                0.027012581005692482,
                0.020287925377488136,
                0.03924267366528511,
                -0.008169773034751415,
                -0.015596998855471611,
                -0.017949627712368965,
                0.0015485743060708046,
                0.02008872851729393,
                -0.006777646020054817,
                -0.012590356171131134,
                0.029473669826984406,
                0.043335672467947006,
                0.046236347407102585,
                0.026434212923049927,
                -0.009192615747451782,
                0.01574510708451271,
                0.05876702070236206,
                0.0466817244887352,
                0.07725535333156586,
                0.08840916305780411,
                0.03266591578722,
                0.08305464684963226,
                0.05791642889380455,
                0.0881480947136879,
                0.07999121397733688,
                0.060855966061353683,
                0.06787273287773132,
                0.07397007942199707,
                0.0335158109664917,
                0.014157531782984734,
                -0.03368670493364334,
                -0.0019866921938955784,
                0.028883595019578934,
                0.033462103456258774,
                -0.016739001497626305,
                -0.019477037712931633,
                -0.028053293004631996,
                0.008324251510202885,
                0.0006722210673615336,
                -0.0020632361993193626,
                0.040507394820451736,
                0.028270479291677475,
                0.042205583304166794,
                0.045701928436756134,
                0.04115889221429825,
                0.07279565930366516,
                0.067075714468956,
                0.0895007848739624,
                0.04436344653367996,
                0.11880387365818024,
                0.07329043000936508,
                0.06433319300413132,
                0.059022773057222366,
                0.08291622251272202,
                0.08020458370447159,
                0.03804045915603638,
                0.027937063947319984,
                0.010459973476827145,
                0.0071768322959542274,
                -0.0001959594083018601,
                -0.010984203778207302,
                -0.019979413598775864,
                0.03230221942067146,
                -0.01870720461010933,
                -0.005365122575312853,
                -0.021912459284067154,
                0.006535791791975498,
                0.02731994166970253,
                0.026237795129418373,
                -0.00388055806979537,
                0.004363304935395718,
                0.026565931737422943,
                0.04518001899123192,
                0.06208651512861252,
                0.06265578418970108,
                0.05048637464642525,
                0.10511195659637451,
                0.07895998656749725,
                0.11101663112640381,
                0.05865785852074623,
                0.08879785984754562,
                0.11246142536401749,
                0.08320721983909607,
                0.09773934632539749,
                0.014374940656125546,
                -0.03687543421983719,
                0.014965150505304337,
                0.0006939013255760074,
                -0.04488097131252289,
                -0.013140559196472168,
                0.026673464104533195,
                0.0022342947777360678,
                0.0007487050606869161,
                0.033379584550857544,
                0.013493002392351627,
                0.04212485998868942,
                0.04248972609639168,
                0.04650433734059334,
                -0.014929096214473248,
                0.054393816739320755,
                0.03674904257059097,
                0.0327124148607254,
                0.06541328132152557,
                0.037811946123838425,
                0.0792834535241127,
                0.1041906401515007,
                0.09107483178377151,
                0.0862843245267868,
                0.09134209901094437,
                0.15215246379375458,
                0.08421389013528824,
                0.08434456586837769,
                0.02162601798772812,
                -0.017446549609303474,
                0.017443718388676643,
                0.01609470322728157,
                0.019144602119922638,
                -0.02104160189628601,
                0.020669544115662575,
                0.03105201944708824,
                0.034552402794361115,
                0.029251355677843094,
                0.07185585796833038,
                0.09254581481218338,
                0.053520359098911285,
                0.01830705814063549,
                0.0501522570848465,
                0.030757149681448936,
                0.03691621497273445,
                0.06250940263271332,
                0.04859717935323715,
                0.01713719591498375,
                0.04870588332414627,
                0.07006241381168365,
                0.10231854766607285,
                0.06756273657083511,
                0.07311703264713287,
                0.11506209522485733,
                0.04451252147555351,
                0.07211733609437943,
                -0.011541478335857391,
                0.018060823902487755,
                0.00764714740216732,
                -0.013987405225634575,
                0.011350023560225964,
                -0.014949971809983253,
                0.020154645666480064,
                0.022105412557721138,
                0.07171930372714996,
                0.044779080897569656,
                0.09132295846939087,
                0.07435572147369385,
                0.06779109686613083,
                0.08775614947080612,
                0.08261781930923462,
                0.025550078600645065,
                0.05140398070216179,
                0.033917997032403946,
                0.05507431924343109,
                0.04492856189608574,
                0.02955145575106144,
                0.042963579297065735,
                0.0366753414273262,
                0.0953890010714531,
                0.07457715272903442,
                0.07368838787078857,
                0.03438582643866539,
                0.026837125420570374,
                0.0038914678152650595,
                -0.02163650281727314,
                -0.038141652941703796,
                0.018033510074019432,
                0.02950241044163704,
                0.03304414451122284,
                0.04429778456687927,
                0.05038771778345108,
                0.027855029329657555,
                0.04251387342810631,
                0.053522802889347076,
                0.059711482375860214,
                0.048741526901721954,
                0.0577407144010067,
                0.05454593896865845,
                0.02806907892227173,
                0.05734362453222275,
                0.05689921975135803,
                0.026170896366238594,
                0.08312180638313293,
                0.046329498291015625,
                0.07907387614250183,
                0.04741907864809036,
                0.04010218009352684,
                0.03904559090733528,
                0.024150412529706955,
                0.020028209313750267,
                -0.016015224158763885,
                -0.02658209204673767,
                -0.01794559508562088,
                -0.0075719961896538734,
                -0.01953887939453125,
                0.03403937816619873,
                -0.013289435766637325,
                -0.012036196887493134,
                0.004659172613173723,
                0.027922963723540306,
                0.030816208571195602,
                0.01480787992477417,
                0.05703534558415413,
                0.0008698258898220956,
                0.028686057776212692,
                0.012693587690591812,
                0.0661863461136818,
                0.04686850681900978,
                0.04323688521981239,
                0.07446643710136414,
                0.08017381280660629,
                0.100991390645504,
                0.09018756449222565,
                0.046280428767204285,
                0.03322400152683258,
                0.04407990723848343,
                0.04191124066710472,
                -0.03640284016728401,
                -0.007882170379161835,
                0.030989186838269234,
                -0.025710836052894592,
                -0.015196719206869602,
                -0.011415577493607998,
                -0.0058000581339001656,
                0.00944860465824604,
                -0.004456863272935152,
                0.014127390459179878,
                -0.02531958557665348,
                0.01731725037097931,
                0.018681908026337624,
                0.025010721758008003,
                0.013420880772173405,
                0.018199613317847252,
                -0.005858719814568758,
                -0.008694055490195751,
                0.06916002184152603,
                0.014508776366710663,
                0.0652824342250824,
                0.04670042544603348,
                0.07538759708404541,
                0.08259975910186768,
                0.06978168338537216,
                -0.0016350712394341826,
                0.005752375815063715,
                -0.014945564791560173,
                -0.04787172004580498,
                0.011821547523140907,
                -0.016187423840165138,
                0.00779333570972085,
                -0.019004933536052704,
                -0.002837928244844079,
                -0.04101308062672615,
                0.007859555073082447,
                0.0025716384407132864,
                0.009774805046617985,
                -0.005389281548559666,
                -0.020773276686668396,
                -0.0012374484213069081,
                0.006986042484641075,
                0.02075803279876709,
                -0.005329163745045662,
                0.023102590814232826,
                0.02600567601621151,
                0.005246418062597513,
                0.020300565287470818,
                0.012809189967811108,
                0.027349110692739487,
                0.09600584954023361,
                0.006746979430317879,
                0.0062221139669418335,
                0.024307606741786003,
                -0.011697442270815372,
                -0.020187463611364365,
                0.015279028564691544,
                -0.027420202270150185,
                0.02030155621469021,
                0.0010180961107835174,
                -0.04219592735171318,
                -0.016870053485035896,
                0.01144231203943491,
                -0.01668008603155613,
                0.003183410270139575,
                -0.04442324489355087,
                -0.044430941343307495,
                -0.053879205137491226,
                -0.04072657972574234,
                0.025519000366330147,
                -0.016010545194149017,
                0.011452693492174149,
                -0.005330738145858049,
                -0.016030335798859596,
                0.061645783483982086,
                0.060629695653915405,
                0.06773053854703903,
                0.02411554381251335,
                0.06623302400112152,
                0.021005980670452118,
                -0.02852865308523178,
                -0.011133812367916107,
                -0.02577654831111431,
                -0.018999218940734863,
                -0.02373350039124489,
                -0.014263661578297615,
                0.027434587478637695,
                -0.05335908755660057,
                -0.04040854796767235,
                0.0013290024362504482,
                -0.011027856729924679,
                0.04053666070103645,
                -0.017032934352755547,
                0.0007749496144242585,
                0.023270847275853157,
                0.011700654402375221,
                -0.037463702261447906,
                -0.024820785969495773,
                0.022804291918873787,
                -0.012247615493834019,
                -0.034348707646131516,
                0.03339282050728798,
                -0.0045357318595051765,
                0.03386063501238823,
                -0.003384331241250038,
                0.05461197718977928,
                0.014896972104907036,
                -0.026928884908556938,
                -0.020869893953204155,
                -0.006200490985065699,
                0.02774307318031788,
                -0.018351079896092415,
                -0.01494141947478056,
                0.008916091173887253,
                0.006010862998664379,
                -0.06388822197914124,
                -0.04354412108659744,
                -0.018619928508996964,
                0.02356143295764923,
                -0.00461843004450202,
                0.016031645238399506,
                0.0011815153993666172,
                -0.014262965880334377,
                -0.012209540233016014,
                -0.013164383359253407,
                0.008277756161987782,
                -0.0040284269489347935,
                -0.02830972708761692,
                -0.020335102453827858,
                0.0021313256584107876,
                0.02148408629000187,
                0.04009099677205086,
                0.016731295734643936,
                -0.03100118786096573,
                -0.035492878407239914,
                -0.006853208877146244,
                -0.010964611545205116,
                -0.015026525594294071,
                -0.02561328187584877,
                -0.02423979341983795,
                -0.013141117990016937,
                0.020854130387306213,
                0.024935094639658928,
                -0.014727447181940079,
                -0.027335230261087418,
                -0.02498730830848217,
                0.004108854103833437,
                0.034488651901483536,
                0.027141161262989044,
                0.016196245327591896,
                0.016529249027371407,
                0.032148327678442,
                0.0067212083376944065,
                0.055376727133989334,
                0.030956881120800972,
                -0.028478343039751053,
                -0.03838755935430527,
                -0.0211069043725729,
                0.0070844246074557304,
                0.0044915745966136456,
                -0.022341441363096237,
                -0.003662202740088105,
                0.020762819796800613,
                -0.03147916495800018,
                -0.010223623365163803,
                0.04057960957288742,
                -0.021783793345093727,
                -0.027654649689793587,
                -0.013387058861553669,
                0.008157079108059406,
                0.013582385145127773,
                -0.008466502651572227,
                -0.03710229694843292,
                -0.035936348140239716,
                -0.007163261063396931,
                -0.020793944597244263,
                -0.02257835492491722,
                0.014007949270308018,
                0.020966103300452232,
                -0.01639493927359581,
                0.01582222990691662,
                0.004716911818832159,
                0.023520121350884438,
                -0.012004891410470009,
                -0.027950715273618698,
                -0.03185177221894264,
                -0.06240026280283928,
                -0.04056437313556671,
                -0.05438525229692459,
                -0.02057652920484543,
                -0.011971956118941307,
                -0.012539677321910858,
                0.01974620297551155,
                -0.040760837495326996,
                0.014895705506205559,
                0.03478590399026871,
                0.004529168829321861,
                0.03500160574913025,
                0.030902570113539696,
                -0.04680323973298073,
                -0.016778966411948204,
                -0.06783156096935272,
                -0.0031777762342244387,
                -0.009317793883383274,
                -0.02813553996384144,
                0.012890402227640152,
                -0.0173838809132576,
                -0.022663813084363937,
                0.011257242411375046,
                -0.03316149115562439,
                -0.015060588717460632,
                -0.011928955093026161,
                -0.013413673266768456,
                -0.019200945273041725,
                -0.01997128129005432,
                -0.0624457523226738,
                -0.039436593651771545,
                -0.002151373540982604,
                -0.001338138710707426,
                -0.0041465978138148785,
                -0.035654958337545395,
                0.006661921739578247,
                0.004536117427051067,
                0.015504494309425354,
                -0.01762101985514164,
                0.0012660108041018248,
                -0.01962827891111374,
                -0.03273603692650795,
                -0.05616288259625435,
                -0.03887217491865158,
                -0.03023381344974041,
                -0.002350348047912121,
                0.0016083770897239447,
                -0.0022987411357462406,
                -0.06419879198074341,
                -0.057363495230674744,
                -0.024789026007056236,
                -0.06882818043231964,
                -0.08212465792894363,
                -0.051207851618528366,
                -0.027060221880674362,
                -0.03910050913691521,
                -0.06302911788225174,
                -0.03205976262688637,
                -0.015294867567718029,
                -0.04314418137073517,
                -0.024925220757722855,
                -0.008410966955125332,
                -0.044297344982624054,
                -0.0019423917401582003,
                0.0201337281614542,
                -0.024335641413927078,
                -0.044911038130521774,
                0.028681335970759392,
                0.02486635185778141,
                0.00919059943407774,
                -0.007566588465124369,
                -0.008913095109164715,
                -0.0540170781314373,
                -0.0666317567229271,
                -0.05247274041175842,
                -0.06411972641944885,
                -0.031881917268037796,
                -0.09659501165151596,
                -0.06325910240411758,
                -0.05675181373953819,
                -0.042570922523736954,
                -0.0802992656826973,
                -0.025009267032146454,
                -0.04268024116754532,
                -0.02338988333940506,
                -0.07673473656177521,
                -0.02187088318169117,
                0.01725641079246998,
                -0.042061056941747665,
                0.00032143897260539234,
                -0.03059668280184269,
                -0.04959399998188019,
                0.00572761707007885,
                -0.012805954553186893,
                0.004856247920542955,
                -0.011281000450253487,
                -0.015107537619769573,
                -0.044419340789318085,
                -0.013179742731153965,
                -0.0421941839158535,
                -0.02118893526494503,
                -0.054611265659332275,
                -0.06841753423213959,
                -0.0944073274731636,
                -0.0928739383816719,
                -0.09788697212934494,
                -0.09513603895902634,
                -0.11175210028886795,
                -0.055058300495147705,
                -0.039410628378391266,
                -0.08408206701278687,
                -0.062132690101861954,
                -0.032813407480716705,
                -0.05248109996318817,
                -0.04127711057662964,
                -0.043010152876377106,
                -0.048280663788318634,
                -0.0020180842839181423,
                -0.026587504893541336,
                -0.031230611726641655,
                -0.04320009797811508,
                0.0018678742926567793,
                -0.024642717093229294,
                0.026387128978967667,
                -0.012674938887357712,
                0.022204255685210228,
                -0.04462727531790733,
                -0.07740248739719391,
                -0.08320556581020355,
                -0.10071700066328049,
                -0.11684426665306091,
                -0.11705012619495392,
                -0.09214093536138535,
                -0.10281156748533249,
                -0.08045578002929688,
                -0.10933578014373779,
                -0.10703761875629425,
                -0.1011713519692421,
                -0.09892217069864273,
                -0.0827513262629509,
                -0.08398818969726562,
                -0.036005716770887375,
                -0.0617760568857193,
                -0.024090418592095375,
                -0.05890824273228645,
                -0.03037492372095585,
                -0.048516154289245605,
                -0.017794644460082054,
                -0.0403548888862133,
                -0.007711224723607302,
                -0.04573439434170723,
                -0.0063241939060389996,
                -0.0321190319955349,
                0.02182895876467228,
                -0.027360593900084496,
                -0.03728621453046799,
                -0.05615316703915596,
                -0.10959846526384354,
                -0.0659460499882698,
                -0.12553554773330688,
                -0.10402866452932358,
                -0.10441198945045471,
                -0.1124025210738182,
                -0.1231597512960434,
                -0.09918531030416489,
                -0.10982481390237808,
                -0.09525444358587265,
                -0.08105761557817459,
                -0.09066007286310196,
                -0.0848088189959526,
                -0.05543266236782074,
                -0.0863327831029892,
                -0.06159348413348198,
                -0.09066906571388245,
                -0.04744703322649002,
                -0.03226291015744209,
                -0.015469839796423912,
                -0.04892871528863907,
                0.006489450577646494,
                -0.026116352528333664
            ],
            [
                -0.010295192711055279,
                -0.004159984644502401,
                -0.043199412524700165,
                -0.012332363985478878,
                -0.024062836542725563,
                -0.04384661093354225,
                -0.034739959985017776,
                -0.04327314347028732,
                -0.0339338593184948,
                -0.021959692239761353,
                -0.014767855405807495,
                -0.03759986534714699,
                -0.021675297990441322,
                -0.019551154226064682,
                -0.00895840022712946,
                -0.024725517258048058,
                0.0011994215892627835,
                -0.012475102208554745,
                -0.04613257572054863,
                -0.02018839493393898,
                0.008964810520410538,
                -0.04254062473773956,
                -0.006477823946624994,
                -0.008183933794498444,
                -0.012646584771573544,
                -0.024211594834923744,
                0.00250627682544291,
                -0.03163852542638779,
                -0.004660090897232294,
                -0.013961425051093102,
                -0.013486985117197037,
                -0.013297724537551403,
                -0.03820543736219406,
                0.003140784101560712,
                0.01935197040438652,
                -0.03792529180645943,
                -0.015425377525389194,
                -0.030556457117199898,
                -0.013201138004660606,
                0.03062564693391323,
                -0.015799542888998985,
                -0.023499146103858948,
                0.025013146921992302,
                0.029660135507583618,
                0.016226893290877342,
                0.025983985513448715,
                0.009311405010521412,
                -0.0012421546271070838,
                0.008429395034909248,
                -0.033746637403964996,
                0.013430553488433361,
                0.007652194704860449,
                -0.007371528074145317,
                -0.054080430418252945,
                -0.012922474183142185,
                -0.05610082671046257,
                0.004256899002939463,
                -0.04731550067663193,
                -0.020620202645659447,
                -0.02466050162911415,
                -0.0009505781927146018,
                0.028586583212018013,
                0.0012521054595708847,
                -0.00923763494938612,
                -0.03125891089439392,
                -0.02107127755880356,
                0.02679775096476078,
                0.038181375712156296,
                0.04206334054470062,
                0.0450931116938591,
                0.01605486497282982,
                0.035077054053545,
                0.02113356627523899,
                0.015794916078448296,
                -0.015934746712446213,
                0.011576193384826183,
                0.00971904769539833,
                0.005379685200750828,
                0.03580058738589287,
                0.01680370233952999,
                -0.005325257312506437,
                -0.0354468859732151,
                -0.018219899386167526,
                -0.005514142103493214,
                -0.03359229862689972,
                0.004019556101411581,
                -0.032938458025455475,
                -0.026224583387374878,
                0.028086785227060318,
                0.032633982598781586,
                -0.006572502199560404,
                0.00943116657435894,
                0.028190623968839645,
                0.015854928642511368,
                0.049056265503168106,
                0.06059934198856354,
                0.024227498099207878,
                0.021818576380610466,
                0.03301378712058067,
                0.004305153153836727,
                0.015101119875907898,
                0.05007350817322731,
                0.018081728368997574,
                0.018682051450014114,
                -0.020830901339650154,
                0.015682905912399292,
                0.0009888224303722382,
                0.018404461443424225,
                -0.010579722933471203,
                0.023768236860632896,
                0.009801623411476612,
                -0.004926481284201145,
                -0.014341011643409729,
                -0.03561941906809807,
                0.02763388492166996,
                0.021036917343735695,
                -0.0021597782615572214,
                0.025870241224765778,
                0.0440114289522171,
                -0.008746395818889141,
                -0.007740997709333897,
                -0.019197572022676468,
                0.03545553609728813,
                -0.005823024082928896,
                -0.012861335650086403,
                0.025142967700958252,
                -0.024656690657138824,
                0.01300052274018526,
                0.02939523570239544,
                -0.025665191933512688,
                -0.040304433554410934,
                0.00882317591458559,
                0.017590707167983055,
                0.025659117847681046,
                0.011794053949415684,
                -0.025565650314092636,
                -0.011493684723973274,
                0.032435979694128036,
                0.015811340883374214,
                -0.05908442661166191,
                -0.027984879910945892,
                0.021077655255794525,
                0.002494789194315672,
                -0.01290010754019022,
                0.036428339779376984,
                0.02803981862962246,
                -0.002586744725704193,
                0.018976515159010887,
                -0.00469533447176218,
                0.0014967289753258228,
                -0.014243969693779945,
                0.0034926794469356537,
                0.017045171931385994,
                -0.06211990490555763,
                -0.0028481287881731987,
                -0.01469185296446085,
                -0.012276872992515564,
                -0.033819571137428284,
                -0.023969069123268127,
                -0.030231013894081116,
                -0.007307144347578287,
                -0.008695955388247967,
                0.02884005941450596,
                0.007552582770586014,
                -0.0012039805296808481,
                0.02628888562321663,
                0.009899006225168705,
                -0.02511787600815296,
                -0.04302098974585533,
                -0.03152604401111603,
                0.02392457239329815,
                0.05951256304979324,
                0.02067168615758419,
                0.037585604935884476,
                0.02522575855255127,
                0.02943081595003605,
                0.04597615823149681,
                0.03326629847288132,
                0.04167264327406883,
                0.054989177733659744,
                0.021328670904040337,
                0.01329581905156374,
                0.010996959172189236,
                -0.006076142657548189,
                0.016529737040400505,
                -0.03735435754060745,
                -0.014138954691588879,
                0.005918679293245077,
                -0.008232287131249905,
                -0.02127811871469021,
                0.017377685755491257,
                -0.03409190848469734,
                0.0017268805531784892,
                -0.04298044741153717,
                -0.03435932844877243,
                0.0035550263710319996,
                -0.018912581726908684,
                0.007730539888143539,
                0.03066205605864525,
                0.024352941662073135,
                0.07842075079679489,
                0.014132657088339329,
                0.05177459120750427,
                0.07154487818479538,
                0.05071466416120529,
                0.03334643319249153,
                0.016368668526411057,
                0.053548265248537064,
                0.026401637122035027,
                -0.005385272670537233,
                0.007615501061081886,
                -0.030570711940526962,
                -0.010710549540817738,
                -0.03174881264567375,
                -0.019732190296053886,
                -0.052357301115989685,
                0.0072394609451293945,
                0.029030777513980865,
                -0.025915691629052162,
                -0.0073597789742052555,
                -0.009605780243873596,
                0.013149884529411793,
                -0.016828041523694992,
                -0.02284364216029644,
                0.008478915318846703,
                -0.020460734143853188,
                0.01941920816898346,
                0.08231528103351593,
                0.08056431263685226,
                0.06723055243492126,
                0.014768760651350021,
                0.04334980994462967,
                0.04731720685958862,
                0.0005947429453954101,
                0.015275320969522,
                0.03661125898361206,
                0.026858802884817123,
                0.009010926820337772,
                -0.040364138782024384,
                -0.025303149595856667,
                -0.044832274317741394,
                -0.029928401112556458,
                -0.007377400994300842,
                0.025214463472366333,
                0.0035603628493845463,
                -0.008902174420654774,
                -0.005750099662691355,
                -0.02501937560737133,
                -0.052308522164821625,
                0.02932032383978367,
                0.024396110326051712,
                -0.02037293277680874,
