{
    "architecture": "SimpleCNN(\n  (conv1): Conv2d(1, 4, kernel_size=(3, 3), stride=(1, 1), padding=(1, 1))\n  (relu1): ReLU()\n  (pool1): MaxPool2d(kernel_size=2, stride=2, padding=0, dilation=1, ceil_mode=False)\n  (conv2): Conv2d(4, 8, kernel_size=(3, 3), stride=(1, 1), padding=(1, 1))\n  (relu2): ReLU()\n  (pool2): MaxPool2d(kernel_size=2, stride=2, padding=0, dilation=1, ceil_mode=False)\n  (fc1): Linear(in_features=392, out_features=20, bias=True)\n  (relu3): ReLU()\n  (fc2): Linear(in_features=20, out_features=10, bias=True)\n)",
    "layers": {
        "conv1": "Conv2d(1, 4, kernel_size=(3, 3), stride=(1, 1), padding=(1, 1))",
        "relu1": "ReLU()",
        "pool1": "MaxPool2d(kernel_size=2, stride=2, padding=0, dilation=1, ceil_mode=False)",
        "conv2": "Conv2d(4, 8, kernel_size=(3, 3), stride=(1, 1), padding=(1, 1))",
        "relu2": "ReLU()",
        "pool2": "MaxPool2d(kernel_size=2, stride=2, padding=0, dilation=1, ceil_mode=False)",
        "fc1": "Linear(in_features=392, out_features=20, bias=True)",
        "relu3": "ReLU()",
        "fc2": "Linear(in_features=20, out_features=10, bias=True)"
    },
    "activations": [
        "ReLU()",
        "ReLU()",
        "ReLU()"
    ],
    "trainable_parameters": {
        "conv1.weight": 36,
        "conv1.bias": 4,
        "conv2.weight": 288,
        "conv2.bias": 8,
        "fc1.weight": 7840,
        "fc1.bias": 20,
        "fc2.weight": 200,
        "fc2.bias": 10
    },
    "total_parameters": 8406,
    "state_dict": {
        "conv1.weight": [
            [
                [
                    [
                        0.17688333988189697,
                        -0.15439562499523163,
                        -0.27565789222717285
                    ],
                    [
                        -0.771270751953125,
                        -0.29034459590911865,
                        -0.16339372098445892
                    ],
                    [
                        -0.45189741253852844,
                        -0.10132832825183868,
                        -0.4816930592060089
                    ]
                ]
            ],
            [
                [
                    [
                        -0.59889817237854,
                        -0.08801114559173584,
                        0.2898063361644745
                    ],
                    [
                        -0.647532045841217,
                        0.39620915055274963,
                        0.3706059753894806
                    ],
                    [
                        -0.5748425722122192,
                        0.2724703252315521,
                        0.3735567629337311
                    ]
                ]
            ],
            [
                [
                    [
                        0.21319103240966797,
                        0.12376655638217926,
                        -0.4065121114253998
                    ],
                    [
                        0.4433366656303406,
                        -0.3335924446582794,
                        -0.6352348923683167
                    ],
                    [
                        -0.18144908547401428,
                        -0.46991607546806335,
                        -0.5479618310928345
                    ]
                ]
            ],
            [
                [
                    [
                        0.40649089217185974,
                        0.41109126806259155,
                        0.03477909788489342
                    ],
                    [
                        0.13302721083164215,
                        0.02207612618803978,
                        -0.08256398141384125
                    ],
                    [
                        0.1128941997885704,
                        -0.6153047680854797,
                        -0.6576864719390869
                    ]
                ]
            ]
        ],
        "conv1.bias": [
            0.4794330894947052,
            -0.12762421369552612,
            0.5551623106002808,
            0.22171811759471893
        ],
        "conv2.weight": [
            [
                [
                    [
                        -0.03275837004184723,
                        0.04921232908964157,
                        0.23388077318668365
                    ],
                    [
                        0.19227397441864014,
                        0.033890433609485626,
                        0.2757239043712616
                    ],
                    [
                        0.03181087225675583,
                        -0.023932473734021187,
                        0.17845189571380615
                    ]
                ],
                [
                    [
                        -0.1804293990135193,
                        0.04394235461950302,
                        0.07554265111684799
                    ],
                    [
                        -0.03894130885601044,
                        -0.14779141545295715,
                        -0.0040646945126354694
                    ],
                    [
                        -0.2908162772655487,
                        -0.2676014006137848,
                        -0.2653080224990845
                    ]
                ],
                [
                    [
                        0.2603195309638977,
                        0.2014770805835724,
                        0.05601106211543083
                    ],
                    [
                        0.22581425309181213,
                        -0.028978992253541946,
                        0.1826612800359726
                    ],
                    [
                        0.19347207248210907,
                        0.2844427824020386,
                        0.40896961092948914
                    ]
                ],
                [
                    [
                        0.002757641952484846,
                        -0.2885854244232178,
                        -0.317724347114563
                    ],
                    [
                        -0.00727072125300765,
                        -0.08009433001279831,
                        -0.3096141517162323
                    ],
                    [
                        -0.05420522391796112,
                        0.07108242809772491,
                        -0.14950700104236603
                    ]
                ]
            ],
            [
                [
                    [
                        0.24212822318077087,
                        0.20541423559188843,
                        -0.35886749625205994
                    ],
                    [
                        0.22965118288993835,
                        0.13672862946987152,
                        -0.6997934579849243
                    ],
                    [
                        0.18854089081287384,
                        -0.3560357093811035,
                        -0.5294046401977539
                    ]
                ],
                [
                    [
                        0.2675343155860901,
                        0.31012746691703796,
                        0.13343186676502228
                    ],
                    [
                        0.27847081422805786,
                        0.2207600474357605,
                        0.013544892892241478
                    ],
                    [
                        0.3661300539970398,
                        0.24712145328521729,
                        -0.24301031231880188
                    ]
                ],
                [
                    [
                        0.04696742817759514,
                        0.022384533658623695,
                        -0.5051206946372986
                    ],
                    [
                        0.09660639613866806,
                        -0.2927394509315491,
                        -0.4627169966697693
                    ],
                    [
                        -0.004094765055924654,
                        -0.5660103559494019,
                        -0.12071186304092407
                    ]
                ],
                [
                    [
                        0.023389453068375587,
                        -0.16468428075313568,
                        -0.27777352929115295
                    ],
                    [
                        0.04511333629488945,
                        -0.34025663137435913,
                        -0.08761522173881531
                    ],
                    [
                        -0.19988904893398285,
                        -0.5003976225852966,
                        -0.14531077444553375
                    ]
                ]
            ],
            [
                [
                    [
                        -0.1531188189983368,
                        0.058646269142627716,
                        0.13861508667469025
                    ],
                    [
                        0.07436352223157883,
                        0.060759060084819794,
                        -0.15030643343925476
                    ],
                    [
                        0.03233597055077553,
                        0.07223235815763474,
                        -0.05300159007310867
                    ]
                ],
                [
                    [
                        0.03928985074162483,
                        -0.01767352968454361,
                        0.32080981135368347
                    ],
                    [
                        -0.04656253755092621,
                        0.24090971052646637,
                        0.4110366106033325
                    ],
                    [
                        -0.042904362082481384,
                        0.2417142540216446,
                        0.18623238801956177
                    ]
                ],
                [
                    [
                        -0.1276136189699173,
                        0.08337490260601044,
                        0.28280946612358093
                    ],
                    [
                        -0.049453508108854294,
                        0.0665375217795372,
                        0.11163610219955444
                    ],
                    [
                        0.022591998800635338,
                        0.1521674543619156,
                        0.1802011877298355
                    ]
                ],
                [
                    [
                        -0.026942480355501175,
                        0.12221868336200714,
                        0.022190729156136513
                    ],
                    [
                        0.0068880110047757626,
                        -0.08199748396873474,
                        0.03788093850016594
                    ],
                    [
                        0.004570345859974623,
                        0.0061039975844323635,
                        0.19194264709949493
                    ]
                ]
            ],
            [
                [
                    [
                        -0.07680900394916534,
                        -0.3982369601726532,
                        -0.6464033722877502
                    ],
                    [
                        -0.8357851505279541,
                        -0.5200847387313843,
                        0.23879770934581757
                    ],
                    [
                        -0.920366108417511,
                        -0.24160051345825195,
                        0.264269083738327
                    ]
                ],
                [
                    [
                        0.455316424369812,
                        0.18324127793312073,
                        -0.5431309342384338
                    ],
                    [
                        -0.2718011736869812,
                        -0.3288712799549103,
                        -0.410534530878067
                    ],
                    [
                        -0.9198113679885864,
                        -0.19712971150875092,
                        -0.3032476603984833
                    ]
                ],
                [
                    [
                        0.007018161006271839,
                        -0.8132884502410889,
                        -0.2730754613876343
                    ],
                    [
                        -0.915298342704773,
                        0.08168336004018784,
                        0.3738267123699188
                    ],
                    [
                        -0.5756680369377136,
                        -0.19358406960964203,
                        0.16039246320724487
                    ]
                ],
                [
                    [
                        -0.39709433913230896,
                        -0.18591976165771484,
                        0.3416755795478821
                    ],
                    [
                        -0.22460627555847168,
                        0.2195768505334854,
                        0.41485852003097534
                    ],
                    [
                        0.0808192640542984,
                        0.20432808995246887,
                        0.48405730724334717
                    ]
                ]
            ],
            [
                [
                    [
                        -0.12148641794919968,
                        0.10730595141649246,
                        0.1920962780714035
                    ],
                    [
                        0.062316328287124634,
                        -0.015996459871530533,
                        -0.1870945692062378
                    ],
                    [
                        0.05604828894138336,
                        -0.0948016494512558,
                        0.03566533699631691
                    ]
                ],
                [
                    [
                        -0.09346271306276321,
                        0.012228386476635933,
                        -0.15866510570049286
                    ],
                    [
                        -0.06142693758010864,
                        0.30337435007095337,
                        -0.10234961658716202
                    ],
                    [
                        0.1601550430059433,
                        0.12490777671337128,
                        0.038292404264211655
                    ]
                ],
                [
                    [
                        0.06460289657115936,
                        0.09740009158849716,
                        0.01057727262377739
                    ],
                    [
                        -0.0384436659514904,
                        0.19404438138008118,
                        -0.017907818779349327
                    ],
                    [
                        0.00550267705693841,
                        0.0161698367446661,
                        0.015592619776725769
                    ]
                ],
                [
                    [
                        0.1282663494348526,
                        0.049644313752651215,
                        0.19908419251441956
                    ],
                    [
                        0.08907833695411682,
                        0.08149563521146774,
                        0.14045636355876923
                    ],
                    [
                        0.16729126870632172,
                        0.2010776400566101,
                        -0.16223129630088806
                    ]
                ]
            ],
            [
                [
                    [
                        -0.08878748118877411,
                        -0.3906596601009369,
                        -0.4716002345085144
                    ],
                    [
                        -0.41255900263786316,
                        -0.1645640730857849,
                        -0.046420805156230927
                    ],
                    [
                        0.20115616917610168,
                        0.3097778558731079,
                        0.11573201417922974
                    ]
                ],
                [
                    [
                        0.19369986653327942,
                        -0.08649226278066635,
                        0.15979820489883423
                    ],
                    [
                        -0.2495189905166626,
                        -0.4307982921600342,
                        -0.20378930866718292
                    ],
                    [
                        -0.023001691326498985,
                        -0.06452491134405136,
                        0.08738213032484055
                    ]
                ],
                [
                    [
                        -0.12130401283502579,
                        -0.3865188658237457,
                        -0.5415953993797302
                    ],
                    [
                        -0.25640299916267395,
                        -0.18783941864967346,
                        -0.11467332392930984
                    ],
                    [
                        0.2911663055419922,
                        0.352360337972641,
                        0.21494920551776886
                    ]
                ],
                [
                    [
                        -0.17690062522888184,
                        -0.4841497242450714,
                        -0.14645648002624512
                    ],
                    [
                        0.4025145173072815,
                        0.3911650776863098,
                        0.09841138124465942
                    ],
                    [
                        0.4430203139781952,
                        0.22994586825370789,
                        0.2714426517486572
                    ]
                ]
            ],
            [
                [
                    [
                        -0.1715596616268158,
                        -0.1198539063334465,
                        -0.04704762622714043
                    ],
                    [
                        -0.21241997182369232,
                        -0.2844539284706116,
                        -0.03473720699548721
                    ],
                    [
                        0.07277670502662659,
                        0.06208557263016701,
                        -0.15970838069915771
                    ]
                ],
                [
                    [
                        0.2666942775249481,
                        0.05732259899377823,
                        0.19289635121822357
                    ],
                    [
                        0.24852612614631653,
                        -0.18956422805786133,
                        0.33792877197265625
                    ],
                    [
                        0.0832311362028122,
                        0.4096861183643341,
                        0.3901579976081848
                    ]
                ],
                [
                    [
                        -0.22044773399829865,
                        0.06584171950817108,
                        0.08150599151849747
                    ],
                    [
                        -0.16267621517181396,
                        0.26989462971687317,
                        0.2902159094810486
                    ],
                    [
                        0.05077172443270683,
                        0.21376954019069672,
                        -0.08495733141899109
                    ]
                ],
                [
                    [
                        -0.21430443227291107,
                        0.07919647544622421,
                        0.19831618666648865
                    ],
                    [
                        -0.07444135844707489,
                        0.1110750213265419,
                        0.1996188908815384
                    ],
                    [
                        0.2125202864408493,
                        0.03054608777165413,
                        -0.04215824231505394
                    ]
                ]
            ],
            [
                [
                    [
                        0.17826536297798157,
                        0.2773906886577606,
                        0.18198758363723755
                    ],
                    [
                        0.29844504594802856,
                        0.23336748778820038,
                        0.2253846526145935
                    ],
                    [
                        -0.15216410160064697,
                        -0.2530408203601837,
                        -0.18524104356765747
                    ]
                ],
                [
                    [
                        -0.01151718758046627,
                        -0.13108795881271362,
                        -0.26632022857666016
                    ],
                    [
                        -0.012846407480537891,
                        -0.31889116764068604,
                        -0.22911636531352997
                    ],
                    [
                        -0.13147161900997162,
                        -0.11474435776472092,
                        -0.12191490083932877
                    ]
                ],
                [
                    [
                        0.16655129194259644,
                        0.05064687505364418,
                        0.2703268229961395
                    ],
                    [
                        0.2812172472476959,
                        0.3108026683330536,
                        0.05468990281224251
                    ],
                    [
                        -0.3663989007472992,
                        -0.49912846088409424,
                        -0.42649030685424805
                    ]
                ],
                [
                    [
                        0.19889868795871735,
                        0.39510056376457214,
                        0.5471224784851074
                    ],
                    [
                        0.2627037763595581,
                        0.03553401678800583,
                        -0.06767326593399048
                    ],
                    [
                        -0.5249809622764587,
                        -0.5615072250366211,
                        -0.2550249993801117
                    ]
                ]
            ]
        ],
        "conv2.bias": [
            -0.0843287855386734,
            0.26354601979255676,
            -0.25769108533859253,
            0.4210492968559265,
            -0.272157222032547,
            0.23669645190238953,
            -0.16927030682563782,
            0.10907787084579468
        ],
        "fc1.weight": [
            [
                0.05175800994038582,
                -0.04987071454524994,
                -0.040365174412727356,
                -0.04100794717669487,
                -0.018933381885290146,
                0.013208020478487015,
                -0.026806335896253586,
                0.10294005274772644,
                0.06203102692961693,
                0.07034866511821747,
                -0.04349059984087944,
                -0.05744970217347145,
                -0.019032752141356468,
                -0.052953001111745834,
                0.17952968180179596,
                0.1644926816225052,
                0.13322347402572632,
                0.023923970758914948,
                0.02497934177517891,
                0.08957264572381973,
                -0.018771294504404068,
                0.1532391756772995,
                0.147909477353096,
                0.052602618932724,
                0.06456278264522552,
                0.06668335199356079,
                -0.025441022589802742,
                0.01724870875477791,
                0.0015538341831415892,
                0.047839172184467316,
                -0.0038331416435539722,
                0.00728747621178627,
                -0.01960153877735138,
                -0.009979495778679848,
                0.02993178740143776,
                0.016299311071634293,
                -0.060458604246377945,
                -0.10286180675029755,
                0.00905601680278778,
                -0.08812112361192703,
                -0.10318871587514877,
                -0.009205285459756851,
                0.03171882405877113,
                -0.09320845454931259,
                -0.029605939984321594,
                0.0159896407276392,
                0.10450843721628189,
                0.11204467713832855,
                0.05523888021707535,
                0.061122577637434006,
                0.08503954112529755,
                0.13580982387065887,
                0.11093677580356598,
                0.10498291999101639,
                0.11544471979141235,
                0.055290501564741135,
                0.015461734496057034,
                0.19552142918109894,
                0.20591682195663452,
                0.09545040875673294,
                0.1241278275847435,
                0.011321419849991798,
                0.07262039184570312,
                -0.06150225177407265,
                0.043809518218040466,
                0.05508642643690109,
                0.06221364438533783,
                0.0382174514234066,
                0.04080739617347717,
                -0.007882758975028992,
                -0.06019586697220802,
                -0.265144944190979,
                -0.22183334827423096,
                0.002484020544216037,
                0.08421581238508224,
                0.09848102927207947,
                0.06702263653278351,
                0.07623209804296494,
                -0.02704658918082714,
                0.003236287273466587,
                0.10408444702625275,
                0.17329207062721252,
                0.09958069771528244,
                -0.021780842915177345,
                0.12849389016628265,
                0.10565011203289032,
                0.18192242085933685,
                0.2203054577112198,
                0.11855989694595337,
                0.052716948091983795,
                -0.026411553844809532,
                0.06443864107131958,
                0.1379101425409317,
                0.38372984528541565,
                0.09541702270507812,
                -0.06969330459833145,
                0.06456003338098526,
                0.09233648329973221,
                -0.011199139058589935,
                -0.00035497755743563175,
                -0.03257186710834503,
                0.030062617734074593,
                0.07388031482696533,
                0.08893372863531113,
                -0.03529386967420578,
                0.10985881090164185,
                0.12928873300552368,
                0.11375770717859268,
                0.059523940086364746,
                -0.03453055024147034,
                0.01923120953142643,
                0.034946564584970474,
                0.1826910674571991,
                0.23047010600566864,
                0.1175483837723732,
                0.04006719961762428,
                -0.01896277442574501,
                -0.04674724489450455,
                -0.07590403407812119,
                0.16124574840068817,
                0.14514286816120148,
                0.11752796173095703,
                0.013179891742765903,
                0.01698627695441246,
                -0.024116043001413345,
                0.05140376463532448,
                0.03705459460616112,
                0.06808742135763168,
                0.11190494149923325,
                0.13529908657073975,
                -0.010376814752817154,
                -0.082785464823246,
                -0.00868347380310297,
                -0.04254830628633499,
                0.008150854147970676,
                0.005353365559130907,
                0.08182457089424133,
                -0.08887801319360733,
                -0.08486653119325638,
                -0.013307511806488037,
                0.004357738886028528,
                -0.038136277347803116,
                -0.008035916835069656,
                0.017184171825647354,
                -0.0071487948298454285,
                0.07262180745601654,
                0.015572397969663143,
                0.09939287602901459,
                0.013136487454175949,
                0.08221808075904846,
                0.21010147035121918,
                0.26108601689338684,
                0.2700729966163635,
                0.037530314177274704,
                0.049188222736120224,
                0.055579982697963715,
                0.21841639280319214,
                0.1235799491405487,
                0.10961657762527466,
                0.21202801167964935,
                -0.019465267658233643,
                0.013495608232915401,
                -0.17632003128528595,
                -0.3183702230453491,
                -0.3781074583530426,
                -0.15704835951328278,
                0.09041567891836166,
                0.0898297131061554,
                -0.06531467288732529,
                -0.3302645981311798,
                -0.4683840572834015,
                -0.3433643579483032,
                -0.019264336675405502,
                -0.006038870196789503,
                -0.059051066637039185,
                -0.02872285433113575,
                -0.034000933170318604,
                -0.06323468685150146,
                -0.019337868317961693,
                0.007048982195556164,
                0.008153939619660378,
                0.17266209423542023,
                0.05457618087530136,
                0.026859210804104805,
                0.0844852551817894,
                -0.027834860607981682,
                -0.03960477188229561,
                -0.08273224532604218,
                -0.01586242765188217,
                0.1269414871931076,
                0.11932987719774246,
                0.04161156341433525,
                -0.07515808194875717,
                -0.19941289722919464,
                -0.09285001456737518,
                -0.011586974374949932,
                -0.03084838204085827,
                -0.017640801146626472,
                0.05548495426774025,
                0.07842127978801727,
                0.08031388372182846,
                0.08344581723213196,
                0.008373615331947803,
                0.013918155804276466,
                0.06286885589361191,
                0.13339276611804962,
                0.06365179270505905,
                0.06993468105792999,
                0.056982651352882385,
                0.0423593632876873,
                0.14418043196201324,
                0.10054726898670197,
                0.07218127697706223,
                0.07022770494222641,
                -0.043182432651519775,
                -0.014010896906256676,
                -0.08588410168886185,
                0.028502335771918297,
                0.07736945152282715,
                -0.03255081549286842,
                0.045527465641498566,
                0.03838969022035599,
                -0.0026859526988118887,
                0.004845143761485815,
                -0.00809901300817728,
                0.06184297800064087,
                0.12557153403759003,
                0.1485069841146469,
                -0.02854722924530506,
                -0.06552325189113617,
                0.006412507966160774,
                0.039701562374830246,
                0.008050604723393917,
                0.004112845752388239,
                0.026843903586268425,
                -0.09813301265239716,
                -0.12106908112764359,
                -0.06011633574962616,
                0.09134651720523834,
                0.018051424995064735,
                0.014575893059372902,
                -0.06915286183357239,
                -0.031804051250219345,
                0.05839249864220619,
                0.08693008869886398,
                0.03501945734024048,
                0.059504587203264236,
                -0.012645809911191463,
                0.07936317473649979,
                0.027441276237368584,
                0.08422718197107315,
                0.035473428666591644,
                -0.010719826444983482,
                -0.005696509033441544,
                -0.0960894227027893,
                -0.06804177165031433,
                0.0015777484513819218,
                0.15724557638168335,
                0.34057292342185974,
                -0.17961344122886658,
                -0.318574458360672,
                -0.1405487209558487,
                -0.0976029485464096,
                0.05031571164727211,
                0.07917480170726776,
                0.13021451234817505,
                -0.27219319343566895,
                -0.21281389892101288,
                -0.0504235103726387,
                -0.08500389754772186,
                -0.11151397228240967,
                0.008979763835668564,
                -0.03324373438954353,
                -0.039867106825113297,
                -0.054899394512176514,
                -0.019723115488886833,
                -0.12033640593290329,
                -0.1251351535320282,
                0.07313251495361328,
                0.03570162132382393,
                0.013250923715531826,
                -0.0272830743342638,
                -0.07017472386360168,
                -0.11818249523639679,
                -0.07871050387620926,
                -0.08183340728282928,
                0.028179755434393883,
                0.06976714730262756,
                0.012928850948810577,
                0.03465026617050171,
                -0.04957255348563194,
                -0.15754853188991547,
                -0.1289002150297165,
                0.02891811542212963,
                0.054847270250320435,
                0.059709805995225906,
                0.0160771943628788,
                0.08422762155532837,
                0.1375100314617157,
                0.17144766449928284,
                0.1713685840368271,
                0.02243168093264103,
                0.06037108600139618,
                0.13626791536808014,
                0.06798353046178818,
                -0.06629514694213867,
                -0.06471043825149536,
                0.02109515853226185,
                0.15019327402114868,
                0.10197075456380844,
                0.10391461849212646,
                0.017613215371966362,
                -0.02635248750448227,
                -0.08373485505580902,
                0.0036388130392879248,
                0.063735231757164,
                0.023047465831041336,
                0.05927169322967529,
                0.07662607729434967,
                0.009832876734435558,
                -0.040246397256851196,
                -0.0009392378851771355,
                0.04750785231590271,
                0.007921794429421425,
                -0.0412595234811306,
                0.0774025246500969,
                0.06409867852926254,
                0.0234473068267107,
                -0.059288494288921356,
                0.07561060786247253,
                -0.020938294008374214,
                0.030254753306508064,
                -0.02499733306467533,
                -0.02258842997252941,
                -0.030562356114387512,
                0.009384864009916782,
                0.05566966161131859,
                -0.09552488476037979,
                -0.03827499598264694,
                0.012846987694501877,
                0.053115054965019226,
                0.017518535256385803,
                0.057620156556367874,
                -0.15180574357509613,
                -0.1813420057296753,
                -0.0397452749311924,
                0.045161496847867966,
                0.04795902222394943,
                -0.06198422610759735,
                0.13172167539596558,
                -0.22250711917877197,
                -0.20417168736457825,
                -0.10015874356031418,
                -0.04900578036904335,
                0.07548371702432632,
                0.11341287940740585,
                0.25197088718414307,
                -0.10185723006725311,
                -0.11834778636693954,
                -0.055317703634500504,
                -0.03709421679377556,
                -0.10022061318159103,
                -0.04764030501246452,
                -0.019069325178861618,
                0.07126149535179138,
                0.013192634098231792,
                0.038885653018951416,
                0.05011976510286331,
                0.054342761635780334,
                0.1225074902176857,
                0.06925733387470245,
                0.01939375139772892,
                0.0757814422249794,
                0.028893252834677696,
                0.03178199380636215,
                0.0798952504992485,
                0.018330398947000504,
                -0.015605295076966286,
                -0.0687105804681778,
                -0.057794876396656036,
                0.02444126084446907,
                -0.15657681226730347,
                -0.1768718659877777,
                -0.06115386262536049,
                -0.11062043905258179,
                0.02980288863182068,
                -0.028485631570219994,
                -0.012995075434446335,
                -0.07673537731170654,
                -0.024416634812951088,
                0.01915481872856617,
                0.20691309869289398
            ],
            [
                -0.02607673779129982,
                -0.1259804368019104,
                -0.09679871797561646,
                -0.1610720455646515,
                -0.08164803683757782,
                -0.056681886315345764,
                0.06842959672212601,
                -0.021868612617254257,
                -0.002127125160768628,
                -0.05595500394701958,
                -0.06253296136856079,
                -0.045184019953012466,
                -0.034117553383111954,
                -0.07116483151912689,
                0.0637245699763298,
                0.06753814965486526,
                0.06211564689874649,
                0.016197847202420235,
                -0.027012044563889503,
                -0.041935138404369354,
                -0.18662165105342865,
                0.09131243824958801,
                0.09356000274419785,
                0.09845536202192307,
                0.11010067909955978,
                0.03571927919983864,
                -0.03500781208276749,
                -0.08408967405557632,
                -0.004812630824744701,
                0.04169812798500061,
                0.007473595906049013,
                0.04365048184990883,
                0.05398329347372055,
                -0.05980679392814636,
                0.007732956204563379,
                -0.033877987414598465,
                0.030637728050351143,
                0.038261838257312775,
                0.08570896089076996,
                0.009766592644155025,
                -0.0225113146007061,
                0.045645225793123245,
                -0.04083089157938957,
                -0.011857809498906136,
                0.005925219506025314,
                0.09396811574697495,
                0.09649432450532913,
                0.06159038096666336,
                0.05856674909591675,
                0.061668455600738525,
                0.1993253380060196,
                0.46648162603378296,
                0.524937629699707,
                0.403664767742157,
                0.29217657446861267,
                0.06718718260526657,
                0.04773402959108353,
                0.24206186830997467,
                0.3280435800552368,
                0.34112370014190674,
                0.3175347149372101,
                0.16303016245365143,
                0.06560319662094116,
                0.07244988530874252,
                0.15111513435840607,
                0.07413797080516815,
                0.1690390706062317,
                0.0808994248509407,
                0.0837654173374176,
                0.07050943374633789,
                -0.07819335162639618,
                0.01228933222591877,
                -0.12072913348674774,
                -0.027430588379502296,
                0.03580993041396141,
                0.0029333464335650206,
                -0.0405554436147213,
                0.014157543890178204,
                0.10757843405008316,
                0.04970838129520416,
                -0.050537336617708206,
                0.08134014159440994,
                -0.018441997468471527,
                0.00887258630245924,
                -0.014700534753501415,
                0.0815875455737114,
                0.03245019167661667,
                -0.03182370215654373,
                -0.07047421485185623,
                -0.017309565097093582,
                -0.015475007705390453,
                0.054851923137903214,
                0.10214949399232864,
                0.2793552577495575,
                0.07512102276086807,
                0.0037217149510979652,
                0.15441088378429413,
                0.042648233473300934,
                -0.03472619131207466,
                -0.030002668499946594,
                -0.012878857553005219,
                -0.0028786673210561275,
                -0.0013377346331253648,
                0.035832859575748444,
                0.018784798681735992,
                -0.01940869726240635,
                -0.006279659923166037,
                -0.09312538057565689,
                0.024822087958455086,
                0.04608152434229851,
                0.06460012495517731,
                -0.02195673994719982,
                -0.015328344888985157,
                0.05128465220332146,
                0.05584237724542618,
                0.03917860984802246,
                -0.03360637277364731,
                0.04974144324660301,
                -0.11792190372943878,
                0.07261881232261658,
                0.0009773101191967726,
                0.033806223422288895,
                -0.010797619819641113,
                -0.028686733916401863,
                -0.09106102585792542,
                -0.10966019332408905,
                0.05628146231174469,
                0.03408537060022354,
                0.03929461911320686,
                0.026178523898124695,
                0.01782137155532837,
                -0.06554859131574631,
                -0.0793500617146492,
                -0.012444768100976944,
                -0.01920769363641739,
                -0.020600268617272377,
                0.017314298078417778,
                -0.051378898322582245,
                -0.029850903898477554,
                -0.0017363810911774635,
                0.010008025914430618,
                0.012359950691461563,
                0.09311925619840622,
                0.01909794844686985,
                0.0924217626452446,
                0.043012868613004684,
                0.03338303044438362,
                -0.006786332931369543,
                -0.048556357622146606,
                0.04145075008273125,
                0.26133283972740173,
                0.29799726605415344,
                0.41888412833213806,
                0.2323036938905716,
                -0.08442167192697525,
                0.06855159252882004,
                0.034116748720407486,
                0.252983421087265,
                0.31364089250564575,
                0.4833815097808838,
                0.24476377665996552,
                0.008460542187094688,
                -0.005921416915953159,
                0.051662344485521317,
                0.06809936463832855,
                0.1555853933095932,
                0.13864471018314362,
                -0.001557765994220972,
                0.09737515449523926,
                0.026018552482128143,
                0.06512466818094254,
                0.009432337246835232,
                -0.01231189351528883,
                -0.15662522614002228,
                -0.015665775164961815,
                0.1350966989994049,
                0.061837952584028244,
                0.06470853090286255,
                -0.00040213597822003067,
                -0.03013850934803486,
                -0.04517894983291626,
                0.04887273535132408,
                0.1762971729040146,
                0.08781427890062332,
                0.10762988775968552,
                -0.010483496822416782,
                -0.1537625640630722,
                -0.21790407598018646,
                0.033085886389017105,
                0.03471292555332184,
                0.06807425618171692,
                0.06922952830791473,
                0.010340455919504166,
                0.0061236172914505005,
                -0.033880364149808884,
                -0.016634097322821617,
                -0.04429342970252037,
                -0.0801895260810852,
                -0.10741887986660004,
                -0.09716200828552246,
                -0.047638941556215286,
                0.011980067938566208,
                0.05302976816892624,
                -0.08611078560352325,
                -0.08115053176879883,
                -0.14345799386501312,
                -0.065818652510643,
                -0.02328156679868698,
                0.0723903626203537,
                0.04441056773066521,
                0.04439450055360794,
                0.031181998550891876,
                -0.01848197914659977,
                0.024218427017331123,
                -0.07113120704889297,
                0.07745730876922607,
                -0.08215942978858948,
                0.06501828879117966,
                0.06759698688983917,
                0.043202441185712814,
                -0.005539244506508112,
                0.016787340864539146,
                -0.025575151666998863,
                -0.0468837134540081,
                0.05855141580104828,
                -0.02291438914835453,
                0.034823402762413025,
                -0.0005925942678004503,
                -0.003135373815894127,
                -0.09375804662704468,
                -0.007180530112236738,
                -0.00583684490993619,
                0.018090276047587395,
                0.01822032779455185,
                0.051422152668237686,
                -0.03459025174379349,
                0.008745143190026283,
                0.0012745532440021634,
                0.06152897700667381,
                0.017969924956560135,
                0.004202034790068865,
                0.05157295614480972,
                0.031419072300195694,
                0.12419163435697556,
                0.12411046773195267,
                -0.16896578669548035,
                -0.14250916242599487,
                -0.2012367993593216,
                -0.24897852540016174,
                0.009639960713684559,
                0.023142214864492416,
                -0.03441173583269119,
                -0.1975133866071701,
                -0.0625472366809845,
                -0.2221839874982834,
                -0.2926751375198364,
                -0.035164251923561096,
                0.04584044590592384,
                0.15988311171531677,
                0.05405662581324577,
                -0.014193492010235786,
                -0.08091466128826141,
                -0.08426383882761002,
                -0.10018403828144073,
                0.16650044918060303,
                0.30998435616493225,
                -0.09227241575717926,
                -0.13615188002586365,
                -0.06302555650472641,
                -0.08024295419454575,
                -0.024702277034521103,
                0.008714700117707253,
                0.2411717176437378,
                -0.027532879263162613,
                0.05481591448187828,
                -0.11152227222919464,
                -0.0987887978553772,
                0.026373930275440216,
                0.13667215406894684,
                0.2393503040075302,
                0.14044499397277832,
                0.06005605310201645,
                -0.012461076490581036,
                -0.03327280655503273,
                -0.11641844362020493,
                0.008568934164941311,
                0.1369813233613968,
                0.08806536346673965,
                0.07489756494760513,
                -0.01601395010948181,
                -0.17809846997261047,
                -0.2756604254245758,
                -0.09868261218070984,
                -0.037614867091178894,
                -0.034471217542886734,
                -0.03372152894735336,
                -0.02704903855919838,
                -0.05320930853486061,
                -0.012090428732335567,
                0.12428365647792816,
                0.03474288061261177,
                -0.11195895820856094,
                -0.035709448158741,
                -0.07283224910497665,
                -0.024358728900551796,
                0.027862124145030975,
                0.011596311815083027,
                0.10451918840408325,
                0.0523788183927536,
                0.04176102578639984,
                0.07537791132926941,
                0.051182594150304794,
                -0.02077477052807808,
                -0.05808055400848389,
                -0.07169429212808609,
                0.050924550741910934,
                0.010542099364101887,
                -0.03545337915420532,
                0.007490212097764015,
                0.03403068333864212,
                0.07349564880132675,
                -0.0650547593832016,
                0.023579470813274384,
                -0.03754325211048126,
                0.023823896422982216,
                -0.013742461800575256,
                -0.0684666782617569,
                -0.10875511914491653,
                -0.020975157618522644,
                0.05269351601600647,
                0.0013950252905488014,
                -0.03192705661058426,
                -0.08415805548429489,
                -0.082456074655056,
                -0.02911205030977726,
                -0.016937654465436935,
                0.027027562260627747,
                -0.014396597631275654,
                -0.03257974609732628,
                -0.04074636101722717,
                0.031959954649209976,
                0.03956783562898636,
                0.10947070270776749,
                -0.06861210614442825,
                -0.2474565953016281,
                -0.4949316084384918,
                -0.4948592185974121,
                -0.40161311626434326,
                -0.40138253569602966,
                0.19531433284282684,
                -0.21311938762664795,
                -0.29238757491111755,
                -0.2597563564777374,
                -0.33118167519569397,
                -0.4078899323940277,
                -0.23377737402915955,
                0.14395135641098022,
                -0.12605005502700806,
                -0.22978328168392181,
                -0.1509411782026291,
                -0.17758700251579285,
                -0.05692592263221741,
                -0.008683751337230206,
                -0.00685984967276454,
                0.09333323687314987,
                0.03192402049899101,
                -0.019543571397662163,
                -0.045304909348487854,
                0.06767085939645767,
                0.041161440312862396,
                0.004889247938990593,
                0.09999111294746399,
                0.01046990416944027,
                -0.06492972373962402,
                -0.021204546093940735,
                0.0993579849600792,
                0.013517346233129501,
                0.07596652209758759,
                0.05360112711787224,
                0.02224053628742695,
                0.049104511737823486,
                0.05268556624650955,
                0.13358983397483826,
                0.17204320430755615,
                0.04056981950998306,
                0.06527584046125412,
                0.10890502482652664,
                -0.0012246541446074843,
                -0.047152791172266006,
                -0.005981510505080223,
                0.07199995219707489,
                0.18921053409576416
            ],
            [
                -0.04223034530878067,
                0.03640466183423996,
                -0.02988877333700657,
                -0.05311430245637894,
                -0.01865365356206894,
                -0.04186951369047165,
                0.02379940077662468,
                0.016645804047584534,
                0.012886587530374527,
                -0.02418600767850876,
                -0.07952769845724106,
                0.002055178629234433,
                -0.003622461808845401,
                0.029438575729727745,
                -0.053307123482227325,
                0.003510214388370514,
                -0.05841975286602974,
                -0.008378729224205017,
                -0.07145032286643982,
                -0.05827156454324722,
                -0.06713354587554932,
                -0.0648132935166359,
                -0.07199029624462128,
                -0.02889539673924446,
                0.0027117335703223944,
                -0.06095682457089424,
                -0.04284005984663963,
                -0.005539407022297382,
                -0.0849776417016983,
                -0.0516592301428318,
                -0.05864831060171127,
                -0.016475563868880272,
                -0.016926657408475876,
                0.004816611297428608,
                -0.05016513168811798,
                0.007676160894334316,
                -0.058217283338308334,
                0.005347238387912512,
                -0.05854242295026779,
                -0.05712726339697838,
                0.02721349149942398,
                -0.021673185750842094,
                0.012160088866949081,
                0.025373440235853195,
                0.011895737610757351,
                -0.013969390653073788,
                -0.002427309053018689,
                -0.01012558862566948,
                -0.03969559445977211,
                -0.017569690942764282,
                -0.044005028903484344,
                0.015406835824251175,
                -0.043296776711940765,
                -0.05498633161187172,
                -0.0400894470512867,
                0.04155966639518738,
                -0.0063599394634366035,
                -0.0185399129986763,
                0.02409178391098976,
                0.031560566276311874,
                0.001713220146484673,
                -0.019829822704195976,
                -0.017224419862031937,
                -0.06642954051494598,
                -0.037965115159749985,
                -0.01927085965871811,
                -0.0007283099112100899,
                -0.045035816729068756,
                -0.07425131648778915,
                -0.06308045238256454,
                -0.06189751252532005,
                0.01488460786640644,
                -0.03025091625750065,
                -0.05603044480085373,
                -0.01773929037153721,
                -0.0010352013632655144,
                -0.01078976783901453,
                -0.034439388662576675,
                0.002348828362300992,
                0.015681294724345207,
                -0.045244377106428146,
                -0.003701081033796072,
                -0.06295989453792572,
                -0.02764115482568741,
                -0.028519799932837486,
                -0.02554585225880146,
                -0.040253497660160065,
                0.020432231947779655,
                0.02542909048497677,
                0.0006905228947289288,
                -0.039002981036901474,
                -0.05440631881356239,
                -0.009244110435247421,
                -0.001617276226170361,
                -0.0392533503472805,
                -0.036982908844947815,
                -0.020186712965369225,
                -0.058947984129190445,
                0.03289055824279785,
                -0.04242892190814018,
                -0.023967444896697998,
                -0.0745413526892662,
                -0.024994947016239166,
                -0.046822089701890945,
                -0.05011800676584244,
                -0.054188989102840424,
                -0.06153826788067818,
                -0.05599687248468399,
                -0.024373620748519897,
                -0.007012344431132078,
                -0.02839425951242447,
                -0.03721676021814346,
                0.031064249575138092,
                -0.017238855361938477,
                0.006285699084401131,
                -0.04431656748056412,
                -0.06604863703250885,
                -0.005819705780595541,
                -0.07080435007810593,
                -0.03298674896359444,
                0.006967020686715841,
                -0.025200020521879196,
                -0.08823684602975845,
                -0.04118182510137558,
                -0.08145973086357117,
                -0.03332773968577385,
                -0.043300434947013855,
                -0.0023210407234728336,
                -0.02379920519888401,
                -0.04172597825527191,
                -0.008204872719943523,
                -0.04500402882695198,
                0.02416752651333809,
                -0.022901300340890884,
                -0.04174234718084335,
                -0.033779509365558624,
                -0.07161200791597366,
                -0.046231187880039215,
                0.013657024130225182,
                0.029989995062351227,
                -0.0642702728509903,
                0.03505627065896988,
                -0.05917736887931824,
                0.012719359248876572,
                -0.03834979236125946,
                -0.017731623724102974,
                -0.023860905319452286,
                -0.04930868744850159,
                -0.05826706811785698,
                -0.058346305042505264,
                0.0034450837410986423,
                -0.06862732023000717,
                0.02930779755115509,
                -0.05384976044297218,
                -0.021115195006132126,
                -0.03609549254179001,
                -0.0490957573056221,
                -0.05950742959976196,
                -0.055359162390232086,
                -0.03427238389849663,
                -0.034779440611600876,
                -0.0637090802192688,
                0.004357493482530117,
                -0.01880355179309845,
                -0.009746033698320389,
                -0.0725257620215416,
                -0.04782154783606529,
                -0.03392554074525833,
                -0.0668012723326683,
                -0.018615664914250374,
                -0.07705497741699219,
                -0.07060114294290543,
                -0.04741593450307846,
                -0.048437826335430145,
                -0.05422237142920494,
                -0.05693189054727554,
                -0.03077949769794941,
                -0.06669933348894119,
                -0.06820596009492874,
                0.03114875592291355,
                -0.023488322272896767,
                0.00037877881550230086,
                -0.06358974426984787,
                0.01368408091366291,
                -0.03170600160956383,
                -0.003349439939484,
                0.0035541928373277187,
                0.02821519784629345,
                -0.040810730308294296,
                0.027965275570750237,
                -0.02042015828192234,
                -0.08776139467954636,
                -0.05277764052152634,
                -0.03875343129038811,
                -0.046661626547575,
                -0.06351146101951599,
                -0.019063709303736687,
                -0.009151196107268333,
                0.03283309191465378,
                -0.03073726035654545,
                -0.07816078513860703,
                -0.07643468677997589,
                -0.03932374715805054,
                0.0044973259791731834,
                -0.024249883368611336,
                -0.03055262379348278,
                0.013280561193823814,
                -0.03563156723976135,
                0.006855191197246313,
                -0.05508589372038841,
                -0.03313277289271355,
                -0.039820827543735504,
                -0.0710964947938919,
                -0.027293454855680466,
                -0.05480336770415306,
                -0.06020151451230049,
                -0.045448269695043564,
                -0.0703355148434639,
                0.017476536333560944,
                -0.04737500473856926,
                -0.048299334943294525,
                -0.03910861909389496,
                -0.02466048114001751,
                -0.03691301494836807,
                -0.012366141192615032,
                -0.00803999975323677,
                -0.053765807300806046,
                0.009386488236486912,
                0.008051295764744282,
                -0.05001587048172951,
                -0.05950968340039253,
                -0.010417789220809937,
                -0.011842786334455013,
                0.001979905879124999,
                -0.03658103197813034,
                -0.015697289258241653,
                -0.033040378242731094,
                -0.011091919615864754,
                0.005467647220939398,
                -0.04409106448292732,
                -0.016469325870275497,
                -0.054035235196352005,
                -0.07594025135040283,
                -0.0830327495932579,
                -0.01826583221554756,
                -0.026644565165042877,
                0.007218214217573404,
                -0.06915833055973053,
                0.014638415537774563,
                0.02835143357515335,
                -0.07119075208902359,
                -0.0014006448909640312,
                -0.03022317960858345,
                -0.005110934376716614,
                0.0054417988285422325,
                -0.009913547895848751,
                0.003065958386287093,
                0.003018399002030492,
                -0.005573802627623081,
                -0.018123796209692955,
                -0.004694960080087185,
                0.031468186527490616,
                -0.041686978191137314,
                -0.048323776572942734,
                -0.004117356613278389,
                -0.0578281506896019,
                0.022374162450432777,
                -0.0024139778688549995,
                -0.05598937347531319,
                0.0271773524582386,
                0.014567974954843521,
                -0.01085240300744772,
                0.046830467879772186,
                -0.043064434081315994,
                0.030813563615083694,
                0.002970315283164382,
                0.051795098930597305,
                -0.01818881742656231,
                0.04698672145605087,
                0.04371919110417366,
                0.018695591017603874,
                0.01991574838757515,
                0.01992843486368656,
                -0.029656538739800453,
                0.015934089198708534,
                -0.07331948727369308,
                -0.020151905715465546,
                0.07759442180395126,
                0.015247464179992676,
                0.03536468371748924,
                -0.019913125783205032,
                -0.05140652507543564,
                -0.019394516944885254,
                -0.041257698088884354,
                -0.05396121367812157,
                -0.0501481369137764,
                0.027922185137867928,
                -0.03700779005885124,
                -0.0025052048731595278,
                0.0013112230226397514,
                -0.008173375390470028,
                -0.0010778221767395735,
                0.007284752558916807,
                0.004001769237220287,
                0.01376909390091896,
                -0.036351680755615234,
                0.013437640853226185,
                -0.023901451379060745,
                0.003735842416062951,
                0.015112865716218948,
                -0.056529052555561066,
                -0.04747147485613823,
                0.014106004498898983,
                -0.043686479330062866,
                -0.05819988623261452,
                0.0027362906839698553,
                0.01042508240789175,
                0.004666061606258154,
                0.004005743190646172,
                0.0029435378964990377,
                -0.028320476412773132,
                -0.033854760229587555,
                -0.07590344548225403,
                -0.007002668455243111,
                -0.06415349990129471,
                0.013877345249056816,
                -0.04665926471352577,
                -0.004129788838326931,
                -0.006222284398972988,
                -0.060576431453228,
                -0.016766760498285294,
                -0.01448805071413517,
                -0.03843197971582413,
                -0.020978709682822227,
                0.012277323752641678,
                0.006441541016101837,
                -0.0466165654361248,
                0.028990350663661957,
                -0.04434800520539284,
                -0.033676307648420334,
                -0.005210120230913162,
                -0.06346208602190018,
                0.0004164867859799415,
                0.007164222188293934,
                -0.05085328221321106,
                0.02008509822189808,
                -0.038005515933036804,
                -0.032759394496679306,
                0.0382915697991848,
                0.00370858539827168,
                -0.025487685576081276,
                0.06203661859035492,
                -0.03899697959423065,
                0.004413183778524399,
                -0.038212694227695465,
                0.03567683324217796,
                0.029645871371030807,
                0.026166418567299843,
                -0.06015462055802345,
                -0.03070375695824623,
                0.02752527967095375,
                0.010463707149028778,
                0.032080236822366714,
                0.0039350371807813644,
                0.02095772884786129,
                -0.06085870787501335,
                -0.034149616956710815,
                -0.022781021893024445,
                -0.040795449167490005,
                -0.0411708801984787,
                -0.011477064341306686,
                0.004821800626814365,
                -0.043413322418928146,
                -0.07463930547237396,
                -0.06442732363939285,
                -0.022243035957217216,
                0.01851590909063816,
                -0.04788750782608986,
                -0.023219892755150795,
                0.002946234308183193,
                0.0023890093434602022,
                0.02656007930636406,
                -0.03428444266319275,
                -0.02090410329401493,
                -0.03177255392074585,
                0.010777374729514122,
                -0.05957844480872154,
                -0.02568916045129299,
                -0.010646328330039978,
                -0.06053684651851654,
                -0.03031902387738228,
                -0.058787934482097626
            ],
            [
                0.0005870510940439999,
                -0.0036728831473737955,
                0.10986091941595078,
                0.025170857086777687,
                -0.013650135137140751,
                -0.008330066688358784,
                0.17911624908447266,
                0.0511714331805706,
                0.00012897036504000425,
                0.06944047659635544,
                0.04139519855380058,
                0.0003471723757684231,
                0.00013229931937530637,
                0.07089512050151825,
                -0.11557977646589279,
                -0.030100924894213676,
                -0.048351116478443146,
                0.03460486978292465,
                -0.03988736867904663,
                0.017080487683415413,
                0.029852328822016716,
                -0.1810820996761322,
                -0.06997907161712646,
                0.022178852930665016,
                -0.005026500206440687,
                -0.04098641499876976,
                -0.00504460372030735,
                0.026225734502077103,
                -0.10458365082740784,
                -0.06404761970043182,
                -0.008456363342702389,
                0.10221968591213226,
                0.08305363357067108,
                -0.033041615039110184,
                -0.039928074926137924,
                -0.025441208854317665,
                -0.08608336001634598,
                -0.017173072323203087,
                0.07553441822528839,
                0.13165052235126495,
                -0.02055606245994568,
                -0.11128157377243042,
                0.047575559467077255,
                0.04056999087333679,
                -0.01727307215332985,
                0.019009055569767952,
                0.07551326602697372,
                0.07513738423585892,
                0.03593631461262703,
                0.059772852808237076,
                0.10194246470928192,
                0.25105953216552734,
                0.2988467812538147,
                0.22513708472251892,
                0.043255943804979324,
                0.059091102331876755,
                0.07347791641950607,
                -0.15749198198318481,
                -0.008869304321706295,
                0.16208206117153168,
                0.13022269308567047,
                0.10801246017217636,
                0.03209605813026428,
                0.1457955688238144,
                -0.11767547577619553,
                0.05144582688808441,
                0.2091335505247116,
                0.08477379381656647,
                0.0796489492058754,
                0.02012360282242298,
                0.22214069962501526,
                -0.04495084658265114,
                0.2256988286972046,
                0.14795686304569244,
                -0.061417777091264725,
                0.048622678965330124,
                0.12075202912092209,
                0.14166896045207977,
                0.09410590678453445,
                0.14896482229232788,
                -0.04173985868692398,
                0.047248631715774536,
                -0.016744444146752357,
                0.04512757807970047,
                0.14449070394039154,
                0.20077377557754517,
                0.08817823976278305,
                0.04686123877763748,
                0.06189427152276039,
                -0.03432080149650574,
                0.06706947833299637,
                0.17298400402069092,
                0.1981373429298401,
                0.16259010136127472,
                0.18575173616409302,
                0.012281065806746483,
                0.07486885786056519,
                0.12982463836669922,
                0.1563933938741684,
                0.056114617735147476,
                0.05368832126259804,
                0.00014569902850780636,
                -0.044536516070365906,
                0.0706249251961708,
                0.12884892523288727,
                -0.076161228120327,
                -0.00923509243875742,
                -0.06285876780748367,
                -0.0916958749294281,
                -0.030380195006728172,
                0.06829622387886047,
                0.013579647988080978,
                -0.1503821462392807,
                -0.1413601040840149,
                -0.06076422706246376,
                -0.0538494735956192,
                0.06279480457305908,
                0.022547053173184395,
                -0.040896087884902954,
                -0.11406653374433517,
                -0.05116379261016846,
                0.023398319259285927,
                -0.07526057958602905,
                0.02710515446960926,
                0.06463146954774857,
                0.009836245328187943,
                -0.07725075632333755,
                -0.008799598552286625,
                -0.034607503563165665,
                -0.02554294653236866,
                0.003532728645950556,
                0.00866827555000782,
                -0.00611061742529273,
                -0.01351899467408657,
                0.004276225809007883,
                0.020925214514136314,
                -0.027157096192240715,
                0.016560928896069527,
                -0.009132703766226768,
                -0.04558666795492172,
                0.04488923028111458,
                -0.07637868821620941,
                -0.08741060644388199,
                0.0008371490403078496,
                -0.03285110369324684,
                0.01435910165309906,
                -0.006830217782407999,
                0.05821973830461502,
                0.05696282163262367,
                -0.03146002069115639,
                -0.06627857685089111,
                0.04203123226761818,
                0.12183110415935516,
                0.27496692538261414,
                -0.030020443722605705,
                -0.13627508282661438,
                -0.131731778383255,
                -0.1374964416027069,
                -0.04984298348426819,
                0.09882590919733047,
                0.3802015781402588,
                0.07574213296175003,
                0.06266576051712036,
                -0.003785612527281046,
                0.13737934827804565,
                0.09514728933572769,
                -0.07285682111978531,
                0.2098994106054306,
                0.14561370015144348,
                0.20865851640701294,
                0.15363748371601105,
                0.0997532531619072,
                0.17534469068050385,
                0.059359170496463776,
                0.1018357127904892,
                0.14108611643314362,
                0.26818764209747314,
                0.09928970038890839,
                0.10950429737567902,
                0.10062155872583389,
                0.11079174280166626,
                0.12800955772399902,
                0.04413602128624916,
                0.19109605252742767,
                0.10472214967012405,
                0.11362402141094208,
                0.05448024719953537,
                -0.16709744930267334,
                0.07475053519010544,
                0.11714933067560196,
                0.19708725810050964,
                0.2747096121311188,
                0.15686605870723724,
                0.04008305445313454,
                -0.10703005641698837,
                0.016193775460124016,
                0.16390125453472137,
                0.0877733901143074,
                0.0021628434769809246,
                -0.0373113751411438,
                -0.05941836163401604,
                -0.009267176501452923,
                0.05247029662132263,
                0.059266239404678345,
                -0.019568977877497673,
                -0.005814197938889265,
                -0.03804639354348183,
                0.009809105657041073,
                0.05030018463730812,
                0.040261365473270416,
                -0.10728559643030167,
                -0.1001657024025917,
                -0.08720536530017853,
                -0.09187562018632889,
                -0.06754014641046524,
                0.03387479484081268,
                0.048708315938711166,
                -0.05996182560920715,
                -0.06525494903326035,
                0.011497833766043186,
                -0.010915450751781464,
                -0.027910662814974785,
                0.10534929484128952,
                0.08414465188980103,
                -0.05613682046532631,
                -0.04571092501282692,
                0.06380891054868698,
                0.004624512046575546,
                -0.004569563549011946,
                -0.05156164616346359,
                0.03021400421857834,
                -0.006536948960274458,
                0.004193964879959822,
                -0.008282506838440895,
                -0.010962906293570995,
                -0.054172273725271225,
                -0.017098894342780113,
                -0.03360140696167946,
                0.05030837282538414,
                0.06862050294876099,
                0.004996955394744873,
                -0.03729293867945671,
                0.0757858157157898,
                0.03799907863140106,
                -0.018480004742741585,
                0.05006241053342819,
                0.002133311703801155,
                -0.04639055207371712,
                -0.10229482501745224,
                0.08123000711202621,
                0.1421157717704773,
                0.13260655105113983,
                0.038235653191804886,
                -0.0038163831923156977,
                0.03507347032427788,
                -0.06360332667827606,
                -0.012363090179860592,
                -0.017924781888723373,
                0.027842149138450623,
                0.020161010324954987,
                0.16887152194976807,
                0.005817106459289789,
                -0.14338305592536926,
                -0.2283097505569458,
                -0.12512663006782532,
                0.15503789484500885,
                0.4314488470554352,
                0.49068450927734375,
                0.07125838845968246,
                -0.0827491283416748,
                -0.1495768427848816,
                -0.05484326183795929,
                0.17484527826309204,
                0.25797396898269653,
                0.2031637579202652,
                0.04697886109352112,
                -0.06264308094978333,
                -0.08676711469888687,
                0.008263850584626198,
                0.21567994356155396,
                0.13048997521400452,
                0.07025086134672165,
                -0.01276141032576561,
                -0.09217643737792969,
                -0.1137872114777565,
                0.004195972345769405,
                0.2643139064311981,
                0.12149553745985031,
                0.10321338474750519,
                0.18209633231163025,
                -0.10601596534252167,
                -0.17377208173274994,
                -0.09858191013336182,
                0.11430248618125916,
                0.14025506377220154,
                0.042278580367565155,
                -0.04580451175570488,
                -0.12823735177516937,
                -0.07184327393770218,
                -0.002273955848067999,
                0.0011525868903845549,
                -0.02112950012087822,
                -0.03244652971625328,
                -0.0393979586660862,
                -0.12228571623563766,
                -0.025298278778791428,
                -0.0764067992568016,
                -0.04330046474933624,
                -0.011149714700877666,
                -0.07767380028963089,
                -0.1118440330028534,
                -0.09932471066713333,
                0.0066125234588980675,
                0.09021659195423126,
                0.05309551581740379,
                -0.03175129368901253,
                0.04495451599359512,
                -0.028126975521445274,
                -0.15273790061473846,
                0.0392606221139431,
                0.07247111201286316,
                0.06626099348068237,
                -0.01289571262896061,
                -0.007099770940840244,
                0.08848877996206284,
                -0.15484002232551575,
                -0.12447623908519745,
                -0.059721291065216064,
                -0.006061038933694363,
                0.029951389878988266,
                0.029398450627923012,
                -0.06099945306777954,
                -0.0063782017678022385,
                -0.04599222540855408,
                -0.06756997108459473,
                -0.08057565987110138,
                0.025738820433616638,
                0.0006779974792152643,
                -0.10823171585798264,
                0.019029969349503517,
                0.019225623458623886,
                -0.005426979623734951,
                0.1116272360086441,
                0.28157904744148254,
                0.2652897834777832,
                0.01084644254297018,
                -0.10727222263813019,
                -0.047802239656448364,
                -0.08460492640733719,
                -0.03409968316555023,
                0.21653318405151367,
                0.18949133157730103,
                0.06341390311717987,
                0.1278165727853775,
                0.07759322226047516,
                -0.06674879044294357,
                0.08621780574321747,
                0.28616881370544434,
                0.23568858206272125,
                0.0938214659690857,
                -0.09775315225124359,
                -0.1651705950498581,
                -0.014856853522360325,
                0.028989411890506744,
                0.22004026174545288,
                0.22078286111354828,
                0.05827661603689194,
                -0.07557164877653122,
                -0.05379515886306763,
                0.06433389335870743,
                0.1324354112148285,
                0.12174165993928909,
                0.10323914885520935,
                0.07963664084672928,
                -0.03658474609255791,
                0.00042658596066758037,
                0.05915536731481552,
                0.23981139063835144,
                -0.006971151567995548,
                -0.1253812313079834,
                -0.016024436801671982,
                -0.04483300819993019,
                -0.02996557019650936,
                0.030095888301730156,
                -0.001544317346997559,
                0.03484886884689331,
                -0.0013953989837318659,
                -0.06472622603178024,
                -0.09931676834821701,
                -0.03972736746072769,
                0.0011346774408593774,
                0.040004000067710876
            ],
            [
                -0.0034472541883587837,
                0.017946336418390274,
                0.0007441572961397469,
                0.022966520860791206,
                0.05861317738890648,
                0.013283789157867432,
                -0.0927436575293541,
                0.060545556247234344,
                0.05684192106127739,
                -0.041168879717588425,
                -0.08673319220542908,
                0.032884128391742706,
                0.04626286029815674,
                0.10959390550851822,
                0.006838749162852764,
                0.031626079231500626,
                -0.006089405622333288,
                -0.03593260794878006,
                0.011240247637033463,
                0.061193402856588364,
                0.177639439702034,
                0.046153657138347626,
                0.035203538835048676,
                0.026257673278450966,
                0.020283833146095276,
                0.039631523191928864,
                0.05057640001177788,
                0.1507163941860199,
                0.10237078368663788,
                0.041319895535707474,
                0.06566134095191956,
                -0.03868104889988899,
                -0.006215339060872793,
                -0.008691811002790928,
                0.03000301495194435,
                -0.07682909071445465,
                -0.05419659614562988,
                0.013308240100741386,
                -0.015608415007591248,
                -0.05026257038116455,
                -0.016522161662578583,
                -0.02822222001850605,
                0.03462149575352669,
                -0.052781011909246445,
                0.03310025855898857,
                0.024862468242645264,
                -0.020653093233704567,
                -0.14768676459789276,
                -0.02897021733224392,
                -0.13021399080753326,
                -0.11464492976665497,
                -0.13174094259738922,
                -0.28796225786209106,
                -0.31070083379745483,
                -0.07147345691919327,
                -0.06223835423588753,
                -0.14196698367595673,
                -0.02920147217810154,
                -0.05508190020918846,
                -0.07653860747814178,
                -0.08381064981222153,
                -0.08667653799057007,
                -0.07216008007526398,
                -0.10578366369009018,
                0.01021847315132618,
                0.15975399315357208,
                -0.001282702200114727,
                0.11585348099470139,
                0.00824497826397419,
                -0.04822419211268425,
                -0.08570712804794312,
                0.1827842742204666,
                0.09743370860815048,
                0.09705062955617905,
                0.024762121960520744,
                -0.03523659333586693,
                -0.11620303988456726,
                -0.08264989405870438,
                0.12740297615528107,
                0.09121659398078918,
                0.052103254944086075,
                -0.1459462195634842,
                -0.03338810056447983,
                -0.0350596159696579,
                -0.11819774657487869,
                0.16877113282680511,
                0.16716721653938293,
                0.09610120952129364,
                0.01930912211537361,
                0.0974077433347702,
                0.04489535838365555,
                -0.12114538997411728,
                -0.019853625446558,
                -0.03377654030919075,
                0.013875609263777733,
                0.1501898318529129,
                -0.029041795060038567,
                -0.11091656982898712,
                -0.07792122662067413,
                0.10340812802314758,
                0.03865024447441101,
                -0.01312833558768034,
                -0.022063326090574265,
                0.019022099673748016,
                -0.020844154059886932,
                0.07577904313802719,
                0.13770659267902374,
                0.08156845718622208,
                -0.004672326147556305,
                0.11640038341283798,
                0.0795210525393486,
                0.034949999302625656,
                0.05435370281338692,
                0.13114559650421143,
                0.11055847257375717,
                0.06997672468423843,
                0.15352961421012878,
                0.12287747114896774,
                0.14606024324893951,
                0.08607576042413712,
                0.13594511151313782,
                -0.03110320307314396,
                0.0780571848154068,
                0.038163650780916214,
                0.00920269824564457,
                0.14831918478012085,
                0.13794618844985962,
                0.09667802602052689,
                0.04171978309750557,
                0.07462874054908752,
                -0.005539864767342806,
                0.05563819408416748,
                0.018324989825487137,
                0.03866192698478699,
                0.0916980504989624,
                0.04871290922164917,
                0.022007271647453308,
                0.05577687546610832,
                -0.007127710152417421,
                -0.055479999631643295,
                0.02723517082631588,
                0.0631023645401001,
                0.10776067525148392,
                0.06310120970010757,
                0.02747437171638012,
                -0.03754265978932381,
                -0.08889453113079071,
                0.09322758764028549,
                0.03049349971115589,
                -0.06406107544898987,
                -0.12304317206144333,
                -0.11061669886112213,
                -0.005427864380180836,
                -0.12154166400432587,
                0.029224850237369537,
                0.023518545553088188,
                0.03635343909263611,
                -0.07081536203622818,
                0.0014599981950595975,
                -0.1935541033744812,
                -0.32469481229782104,
                0.00388562073931098,
                0.004147151950746775,
                -0.11844887584447861,
                -0.13464875519275665,
                -0.12906108796596527,
                0.017994781956076622,
                -0.22381837666034698,
                -0.05207148939371109,
                0.03245949000120163,
                -0.13332487642765045,
                -0.21608757972717285,
                -0.025171540677547455,
                0.21802246570587158,
                -0.0723440870642662,
                -0.12821224331855774,
                -0.04598584771156311,
                0.10667983442544937,
                -0.1691041886806488,
                -0.19584771990776062,
                0.06970783323049545,
                -0.05928364768624306,
                -0.06791295111179352,
                -0.0363418348133564,
                -0.07023152709007263,
                -0.15766626596450806,
                -0.02497902698814869,
                0.15817026793956757,
                -0.005127598997205496,
                -0.07127562165260315,
                -0.13718794286251068,
                -0.3008425235748291,
                -0.3342708647251129,
                -0.07663831114768982,
                0.03323645517230034,
                0.07672684639692307,
                -0.028453458100557327,
                0.12340930104255676,
                0.043192580342292786,
                -0.04426039010286331,
                -0.011537780053913593,
                -0.00013925408711656928,
                -0.03621680662035942,
                0.02133879065513611,
                0.10073317587375641,
                0.05994163826107979,
                0.061220426112413406,
                0.0867396667599678,
                0.1417827010154724,
                0.06016862019896507,
                0.07264988869428635,
                0.06460250914096832,
                0.04310370236635208,
                0.03556034341454506,
                0.12279772758483887,
                0.18473269045352936,
                0.09717435389757156,
                0.07493077963590622,
                0.14827653765678406,
                0.0539657324552536,
                0.025374088436365128,
                0.12380214780569077,
                0.024944769218564034,
                0.16246160864830017,
                0.03688718006014824,
                0.07830159366130829,
                0.058387722820043564,
                0.01579110510647297,
                0.060622334480285645,
                0.0693320482969284,
                0.02741312049329281,
                -0.023430535569787025,
                0.06179318204522133,
                0.029199738055467606,
                -0.03916993364691734,
                0.008153452537953854,
                0.014520861208438873,
                -0.07773704081773758,
                -0.09040907025337219,
                -0.003901873482391238,
                0.01659080758690834,
                0.02419959008693695,
                -0.04336242005228996,
                -0.12173870950937271,
                -0.12017010152339935,
                0.06563089042901993,
                0.06724739074707031,
                0.11099003255367279,
                0.048971712589263916,
                0.04755505174398422,
                -0.03682021424174309,
                0.010467405430972576,
                0.029530435800552368,
                0.003294731955975294,
                0.09398386627435684,
                0.14598359167575836,
                0.09059523046016693,
                0.14364741742610931,
                0.10537460446357727,
                0.00810120441019535,
                0.051537927240133286,
                0.026493104174733162,
                0.04333183169364929,
                0.1378989815711975,
                0.09740946441888809,
                -0.03061554580926895,
                -0.1830795556306839,
                -0.04417939856648445,
                -0.04099145904183388,
                -0.09238192439079285,
                0.07070483267307281,
                0.18978993594646454,
                -0.04518521577119827,
                -0.3054670989513397,
                -0.20573104918003082,
                -0.0887245312333107,
                -0.0089879110455513,
                0.04688938334584236,
                0.10631277412176132,
                -0.1754552125930786,
                -0.24607634544372559,
                -0.22152109444141388,
                -0.21711957454681396,
                -0.17716948688030243,
                -0.09120003879070282,
                -0.0773368552327156,
                -0.3015371263027191,
                -0.21210429072380066,
                -0.2750973403453827,
                -0.20751269161701202,
                0.05602902173995972,
                0.14414003491401672,
                0.01662631519138813,
                -0.09940876066684723,
                -0.020230228081345558,
                0.1250247359275818,
                0.014823374338448048,
                0.013267124071717262,
                0.002758365822955966,
                0.05534166097640991,
                0.0018986869836226106,
                -0.03345150500535965,
                0.150847390294075,
                0.03488028421998024,
                -0.007410558871924877,
                0.14350728690624237,
                0.15102384984493256,
                0.025542914867401123,
                0.013098571449518204,
                0.07379187643527985,
                0.11290765553712845,
                0.09063965827226639,
                0.24415114521980286,
                0.21406230330467224,
                0.08950646966695786,
                0.09260861575603485,
                0.12134667485952377,
                0.07514756917953491,
                0.1175558790564537,
                0.11237107962369919,
                0.14077773690223694,
                0.1376160979270935,
                0.08952241390943527,
                0.03631418198347092,
                0.08404803276062012,
                0.17848478257656097,
                0.14472399652004242,
                0.0661994144320488,
                0.10757488012313843,
                0.013325043022632599,
                0.1218038871884346,
                0.15413504838943481,
                0.13451531529426575,
                0.17085526883602142,
                0.09084941446781158,
                0.10479272902011871,
                -0.037953127175569534,
                0.05148277431726456,
                0.1328868567943573,
                0.21131029725074768,
                0.08405164629220963,
                -0.06946057081222534,
                -0.17497681081295013,
                -0.1039251983165741,
                -0.14097601175308228,
                0.038833413273096085,
                0.15029245615005493,
                0.047618914395570755,
                0.006265853997319937,
                -0.028647882863879204,
                -0.04312700778245926,
                0.05193519592285156,
                0.07317346334457397,
                0.01402655802667141,
                0.03723068907856941,
                0.04136057198047638,
                -0.006958373356610537,
                -0.12623916566371918,
                0.009575363248586655,
                -0.10635843127965927,
                -0.08585631847381592,
                -0.08845898509025574,
                0.11774972081184387,
                -0.036595433950424194,
                -0.3011060655117035,
                -0.1704459935426712,
                -0.11880460381507874,
                -0.027147797867655754,
                0.0748976543545723,
                0.15101227164268494,
                0.24135805666446686,
                -0.2280885875225067,
                -0.08138946443796158,
                -0.054997287690639496,
                -0.001173399854451418,
                0.09213633090257645,
                0.2094266265630722,
                0.0282355435192585,
                -0.2628033757209778,
                -0.14007212221622467,
                -0.08030861616134644,
                -0.056514255702495575,
                -0.07120925188064575,
                -0.051594994962215424,
                -0.02254081889986992,
                0.015468966215848923,
                -0.07763233780860901,
                -0.07266464829444885,
                0.0012882471783086658,
                -0.0006278458167798817,
                -0.0028805506881326437,
                -0.09943842887878418
            ],
            [
                -0.007175356615334749,
                0.05291774496436119,
                -0.015564060769975185,
                -0.08058154582977295,
                -0.02940533682703972,
                0.07016606628894806,
                0.03190033137798309,
                0.06008933112025261,
                0.09740269184112549,
                0.027469301596283913,
                -0.03181777894496918,
                -0.06456415355205536,
                -0.0027663370128721,
                -0.13681747019290924,
                0.06160245090723038,
                0.11573715507984161,
                0.13608761131763458,
                -0.014741028659045696,
                -0.15449240803718567,
                -0.16811056435108185,
                -0.3208089768886566,
                0.03162694349884987,
                0.04235358163714409,
                0.15568414330482483,
                0.08225632458925247,
                -0.07240599393844604,
                -0.11414648592472076,
                -0.1535847932100296,
                -0.04402700066566467,
                0.07316586375236511,
                0.046825021505355835,
                0.06983382999897003,
                -0.01326520275324583,
                -0.007903722114861012,
                0.034173429012298584,
                0.08892573416233063,
                0.04460284858942032,
                0.09065154939889908,
                0.025451431050896645,
                0.016322311013936996,
                0.08166468888521194,
                0.12505784630775452,
                -0.051377687603235245,
                0.05721399560570717,
                0.1748383790254593,
                0.14706072211265564,
                0.07644389569759369,
                0.03406119719147682,
                0.16208389401435852,
                0.09463634341955185,
                0.05822092667222023,
                0.26822149753570557,
                0.25781112909317017,
                0.24646753072738647,
                0.18579912185668945,
                0.06610457599163055,
                0.017812566831707954,
                0.10789086669683456,
                0.005221955012530088,
                0.1294214129447937,
                0.15303045511245728,
                0.09329059720039368,
                0.05620766431093216,
                0.002352353883907199,
                0.02866804227232933,
                0.019320445135235786,
                0.07913865894079208,
                -0.054576072841882706,
                -0.11645383387804031,
                -0.1807110607624054,
                0.04766065254807472,
                0.06731744110584259,
                0.08826545625925064,
